<?xml version="1.0"?>
<opencv_storage>
<cascade>
  <stageType>BOOST</stageType>
  <featureType>LBP</featureType>
  <height>13</height>
  <width>52</width>
  <stageParams>
    <boostType>GAB</boostType>
    <minHitRate>9.9500000476837158e-01</minHitRate>
    <maxFalseAlarm>4.4999998807907104e-01</maxFalseAlarm>
    <weightTrimRate>9.4999999999999996e-01</weightTrimRate>
    <maxDepth>1</maxDepth>
    <maxWeakCount>100</maxWeakCount></stageParams>
  <featureParams>
    <maxCatCount>256</maxCatCount>
    <featSize>1</featSize></featureParams>
  <stageNum>13</stageNum>
  <stages>
    <!-- stage 0 -->
    <_>
      <maxWeakCount>5</maxWeakCount>
      <stageThreshold>-7.2715181112289429e-01</stageThreshold>
      <weakClassifiers>
        <_>
          <internalNodes>
            0 -1 67 -236149874 -18 1330450316 -1048626 -33554433 -1281
            -3145729 -1</internalNodes>
          <leafValues>
            -5.7374793291091919e-01 8.4284347295761108e-01</leafValues></_>
        <_>
          <internalNodes>
            0 -1 94 268440784 -570909196 -138871299 -2269739 134749368
            -39281224 -1685541890 -6791715</internalNodes>
          <leafValues>
            -6.0409384965896606e-01 7.2392022609710693e-01</leafValues></_>
        <_>
          <internalNodes>
            0 -1 28 486544536 1066603696 496507903 2147442013 1008737528
            -1078321264 531110399 -1089852163</internalNodes>
          <leafValues>
            -6.3729810714721680e-01 6.3117593526840210e-01</leafValues></_>
        <_>
          <internalNodes>
            0 -1 34 8392945 -34006535 1024352255 2132481245 10501371
            -1111960133 446355967 523782333</internalNodes>
          <leafValues>
            -6.1615514755249023e-01 5.6795197725296021e-01</leafValues></_>
        <_>
          <internalNodes>
            0 -1 10 -827356506 800894703 260441994 -353391922 2143272943
            2147480575 -5242961 -1048593</internalNodes>
          <leafValues>
            -5.7678759098052979e-01 5.2003616094589233e-01</leafValues></_></weakClassifiers></_>
    <!-- stage 1 -->
    <_>
      <maxWeakCount>6</maxWeakCount>
      <stageThreshold>-1.1192876100540161e+00</stageThreshold>
      <weakClassifiers>
        <_>
          <internalNodes>
            0 -1 73 1105700622 -671088721 -17 -2101329 -17 -67112001
            -1041 -20561</internalNodes>
          <leafValues>
            -5.2077949047088623e-01 8.0876177549362183e-01</leafValues></_>
        <_>
          <internalNodes>
            0 -1 63 489691384 -6521347 2133876221 -57859 -1473734150
            -4531460 170590207 -1625780771</internalNodes>
          <leafValues>
            -5.0886291265487671e-01 7.0105254650115967e-01</leafValues></_>
        <_>
          <internalNodes>
            0 -1 69 -16466 -570573446 1005848712 2145378286 -268983361
            1073590271 -1 -17</internalNodes>
          <leafValues>
            -5.4999530315399170e-01 6.0043269395828247e-01</leafValues></_>
        <_>
          <internalNodes>
            0 -1 108 -2010142206 -655360017 -856757244 -816865362
            -219171072 -671121410 -1048604 -273699925</internalNodes>
          <leafValues>
            -5.4244148731231689e-01 5.7259017229080200e-01</leafValues></_>
        <_>
          <internalNodes>
            0 -1 26 489689236 -33745731 390790655 -537062275 523034110
            -205828 253525501 1325926836</internalNodes>
          <leafValues>
            -6.4082938432693481e-01 4.9542900919914246e-01</leafValues></_>
        <_>
          <internalNodes>
            0 -1 86 822091184 -38789411 -1619034625 -33813028
            -1145537089 -2622980 -1079443969 -1082127484</internalNodes>
          <leafValues>
            -5.5819594860076904e-01 4.9319300055503845e-01</leafValues></_></weakClassifiers></_>
    <!-- stage 2 -->
    <_>
      <maxWeakCount>8</maxWeakCount>
      <stageThreshold>-1.0596163272857666e+00</stageThreshold>
      <weakClassifiers>
        <_>
          <internalNodes>
            0 -1 39 816861436 -168475403 2134892543 1574788317
            -1330088706 -33620481 413712127 134794472</internalNodes>
          <leafValues>
            -5.0978082418441772e-01 7.0752966403961182e-01</leafValues></_>
        <_>
          <internalNodes>
            0 -1 51 1112515210 -5137 -139465809 -2103313 -145755249
            -68157441 -749752369 -202380369</internalNodes>
          <leafValues>
            -5.3633224964141846e-01 6.5043956041336060e-01</leafValues></_>
        <_>
          <internalNodes>
            0 -1 105 -410017278 -34607121 84148992 -810551510 -134279604
            -370311187 -271060222 -405802077</internalNodes>
          <leafValues>
            -5.2809828519821167e-01 5.9071117639541626e-01</leafValues></_>
        <_>
          <internalNodes>
            0 -1 42 967841277 -696847 -155651 1597988317 -1380278278
            -38187016 252362683 -549794347</internalNodes>
          <leafValues>
            -4.6699434518814087e-01 6.5831160545349121e-01</leafValues></_>
        <_>
          <internalNodes>
            0 -1 36 -989084026 -792206138 16859136 1439690571 -150471681
            1089957630 56085470 -67109137</internalNodes>
          <leafValues>
            -4.9457699060440063e-01 5.3160935640335083e-01</leafValues></_>
        <_>
          <internalNodes>
            0 -1 24 -1852828336 -1080864515 -1074423811 2111663509
            -1078945028 -1077944577 531422717 -809444099</internalNodes>
          <leafValues>
            -4.7138929367065430e-01 5.2325189113616943e-01</leafValues></_>
        <_>
          <internalNodes>
            0 -1 66 -146560894 -738791514 1595854666 -403246290 -1057558
            2147482506 -238030866 -68164977</internalNodes>
          <leafValues>
            -6.0173606872558594e-01 4.0092384815216064e-01</leafValues></_>
        <_>
          <internalNodes>
            0 -1 20 523245624 -7008016 526331901 2135759997 1069047228
            -1263107 -37831681 -552056616</internalNodes>
          <leafValues>
            -5.6681877374649048e-01 4.3828517198562622e-01</leafValues></_></weakClassifiers></_>
    <!-- stage 3 -->
    <_>
      <maxWeakCount>8</maxWeakCount>
      <stageThreshold>-1.1799322366714478e+00</stageThreshold>
      <weakClassifiers>
        <_>
          <internalNodes>
            0 -1 44 1057360906 -61650 -13684817 -4255986 -4215105 -4097
            -68178257 -1070197</internalNodes>
          <leafValues>
            -5.3706651926040649e-01 6.9963002204895020e-01</leafValues></_>
        <_>
          <internalNodes>
            0 -1 7 -489689361 15527919 -268507409 -1560281089 -402661377
            284557311 -1 -352321537</internalNodes>
          <leafValues>
            -4.9061295390129089e-01 6.8988269567489624e-01</leafValues></_>
        <_>
          <internalNodes>
            0 -1 84 -1 -196609 -33611779 -1 1565875709 699946453
            1040015356 -33283</internalNodes>
          <leafValues>
            -4.5637497305870056e-01 6.0464662313461304e-01</leafValues></_>
        <_>
          <internalNodes>
            0 -1 15 285213776 -61196 -1614848513 -2262531 -1159405572
            -1026 -1157325828 -1077127003</internalNodes>
          <leafValues>
            -5.3335726261138916e-01 4.8894530534744263e-01</leafValues></_>
        <_>
          <internalNodes>
            0 -1 74 -353394173 -69206017 -33556497 -286332178 -77615233
            -257 -67638482 -488906197</internalNodes>
          <leafValues>
            -4.3236631155014038e-01 5.1080811023712158e-01</leafValues></_>
        <_>
          <internalNodes>
            0 -1 32 1026563153 536433885 -6307845 -8495619 -1115025670
            -125256 252369917 -569877035</internalNodes>
          <leafValues>
            -5.3299909830093384e-01 4.1917124390602112e-01</leafValues></_>
        <_>
          <internalNodes>
            0 -1 59 -221252862 -151784605 1343320640 -252799265
            -1220283629 1148375015 927446007 -159907905</internalNodes>
          <leafValues>
            -5.0482106208801270e-01 4.1443976759910583e-01</leafValues></_>
        <_>
          <internalNodes>
            0 -1 99 -4207102 -71303298 -304807166 2147471831 1660359941
            1081567606 400005634 -134745353</internalNodes>
          <leafValues>
            -4.5486909151077271e-01 4.3623471260070801e-01</leafValues></_></weakClassifiers></_>
    <!-- stage 4 -->
    <_>
      <maxWeakCount>9</maxWeakCount>
      <stageThreshold>-1.5175770521163940e+00</stageThreshold>
      <weakClassifiers>
        <_>
          <internalNodes>
            0 -1 75 -70256118 858780623 -74733560 -74448914 -2108497
            859960319 -67108881 -134217729</internalNodes>
          <leafValues>
            -4.3933939933776855e-01 7.3194873332977295e-01</leafValues></_>
        <_>
          <internalNodes>
            0 -1 6 -420565330 754757626 -340874582 -1342263298 -2228225
            1572664319 -4353 -16777473</internalNodes>
          <leafValues>
            -5.8658212423324585e-01 5.2950447797775269e-01</leafValues></_>
        <_>
          <internalNodes>
            0 -1 102 488112312 -539361795 -547611140 -131075 -1142375432
            -134739 -1141309442 -1180196</internalNodes>
          <leafValues>
            -5.9073185920715332e-01 4.5775374770164490e-01</leafValues></_>
        <_>
          <internalNodes>
            0 -1 104 -1009802750 -874514501 -387030259 -343935185
            -67109476 -336625795 -536877234 -1052757</internalNodes>
          <leafValues>
            -4.5172008872032166e-01 5.4841828346252441e-01</leafValues></_>
        <_>
          <internalNodes>
            0 -1 31 -1188014595 -566017 -42139777 2134867069 -1083474177
            -1078231297 -1680286209 -81077767</internalNodes>
          <leafValues>
            -3.7563389539718628e-01 6.1038178205490112e-01</leafValues></_>
        <_>
          <internalNodes>
            0 -1 4 762203226 -4297026 -1074106626 2132964698 -1710719236
            -1113841240 -12664833 -31785990</internalNodes>
          <leafValues>
            -5.2940207719802856e-01 3.9665296673774719e-01</leafValues></_>
        <_>
          <internalNodes>
            0 -1 68 -469770230 -92340737 -486832126 -185927902 -77606321
            -1778430065 -206312737 -1048593</internalNodes>
          <leafValues>
            -5.5727636814117432e-01 3.6295944452285767e-01</leafValues></_>
        <_>
          <internalNodes>
            0 -1 43 355473852 494452729 1058086911 2136989181 440039402
            -1627979779 505085951 -549790219</internalNodes>
          <leafValues>
            -5.3273898363113403e-01 4.0412527322769165e-01</leafValues></_>
        <_>
          <internalNodes>
            0 -1 110 -959510006 -1024467217 -1969010942 -1594934531
            -83890428 -1024206862 -1416643040 -1012143169</internalNodes>
          <leafValues>
            -5.2258265018463135e-01 3.8127553462982178e-01</leafValues></_></weakClassifiers></_>
    <!-- stage 5 -->
    <_>
      <maxWeakCount>9</maxWeakCount>
      <stageThreshold>-1.5245310068130493e+00</stageThreshold>
      <weakClassifiers>
        <_>
          <internalNodes>
            0 -1 71 -20802 -571146753 1576549304 -537042948 -147457
            -54738963 -4325377 -3</internalNodes>
          <leafValues>
            -3.4345427155494690e-01 7.2415870428085327e-01</leafValues></_>
        <_>
          <internalNodes>
            0 -1 98 -535853566 -2101265 -352323761 -201327701 -1048625
            -67117121 -83891249 -405803122</internalNodes>
          <leafValues>
            -4.3685933947563171e-01 6.3524597883224487e-01</leafValues></_>
        <_>
          <internalNodes>
            0 -1 93 -1120925512 -1644851715 -189428 -131075 -1078239745
            -8979 -1081098260 -4615</internalNodes>
          <leafValues>
            -4.9741888046264648e-01 5.0411051511764526e-01</leafValues></_>
        <_>
          <internalNodes>
            0 -1 35 -353375574 -672139265 588123182 2147469311 -68161025
            2080335295 -40911922 -1041</internalNodes>
          <leafValues>
            -4.3610602617263794e-01 5.6859654188156128e-01</leafValues></_>
        <_>
          <internalNodes>
            0 -1 47 821122557 -434693 -294917 -41539 -1078280193 -131329
            -1122304001 -1153802755</internalNodes>
          <leafValues>
            -3.9957681298255920e-01 5.5982863903045654e-01</leafValues></_>
        <_>
          <internalNodes>
            0 -1 12 -957356402 74098414 -1903415762 1238281198 -132097
            150895615 -8918194 -67109137</internalNodes>
          <leafValues>
            -5.3593653440475464e-01 3.8780573010444641e-01</leafValues></_>
        <_>
          <internalNodes>
            0 -1 14 280953087 1406474103 2063572991 935277509 549264351
            -1074147329 361281531 1345110155</internalNodes>
          <leafValues>
            -5.6840270757675171e-01 3.2268145680427551e-01</leafValues></_>
        <_>
          <internalNodes>
            0 -1 61 -2068 -85473747 -1069551104 311326639 -8391353
            71589759 1935636043 863469439</internalNodes>
          <leafValues>
            -6.5270292758941650e-01 2.7902406454086304e-01</leafValues></_>
        <_>
          <internalNodes>
            0 -1 81 54270136 498219769 510286264 -2360955 1009409272
            -1141230663 -1689591809 -4530735</internalNodes>
          <leafValues>
            -5.5619955062866211e-01 3.4658640623092651e-01</leafValues></_></weakClassifiers></_>
    <!-- stage 6 -->
    <_>
      <maxWeakCount>10</maxWeakCount>
      <stageThreshold>-1.0539277791976929e+00</stageThreshold>
      <weakClassifiers>
        <_>
          <internalNodes>
            0 -1 58 271601917 -167946755 -1073774593 -167807489
            -1330053633 -33554433 -1330053121 817516783</internalNodes>
          <leafValues>
            -4.6471577882766724e-01 6.5035152435302734e-01</leafValues></_>
        <_>
          <internalNodes>
            0 -1 16 -1313603601 -1 864025023 -134873347 2013265919
            -1048577 1944322047 2012732909</internalNodes>
          <leafValues>
            -4.1751515865325928e-01 6.0371440649032593e-01</leafValues></_>
        <_>
          <internalNodes>
            0 -1 54 -489699318 -1060377462 1154091008 -1043338577
            -831534074 1081530171 -427834362 -754974977</internalNodes>
          <leafValues>
            -5.0964635610580444e-01 4.8577064275741577e-01</leafValues></_>
        <_>
          <internalNodes>
            0 -1 38 489692668 490225148 536338431 526343677 -1657233985
            -1611093507 -1343291393 -1623532075</internalNodes>
          <leafValues>
            -5.5917471647262573e-01 4.0607833862304688e-01</leafValues></_>
        <_>
          <internalNodes>
            0 -1 90 -1024462301 -1562386433 -70025213 -255334913
            -1020299465 586118271 1400365399 1409284087</internalNodes>
          <leafValues>
            -4.9361789226531982e-01 4.3832045793533325e-01</leafValues></_>
        <_>
          <internalNodes>
            0 -1 112 -135266398 799466890 -1145834208 -550569160
            -17046620 50195311 -185600076 -1028</internalNodes>
          <leafValues>
            -4.5187091827392578e-01 4.5028334856033325e-01</leafValues></_>
        <_>
          <internalNodes>
            0 -1 53 -100724487 -71626576 -147597315 1898975364 -74441733
            -17077358 -539169282 -553106432</internalNodes>
          <leafValues>
            -3.3861947059631348e-01 5.7777053117752075e-01</leafValues></_>
        <_>
          <internalNodes>
            0 -1 25 -1079798 -138412117 -1903748606 -138417202 -10492534
            -570687637 -548962775 -3151218</internalNodes>
          <leafValues>
            -4.0596866607666016e-01 4.7914090752601624e-01</leafValues></_>
        <_>
          <internalNodes>
            0 -1 3 -51098372 551307007 -1393367298 -1095086850
            1439487999 1973218014 -4270081 -991233</internalNodes>
          <leafValues>
            -4.7537904977798462e-01 3.9683541655540466e-01</leafValues></_>
        <_>
          <internalNodes>
            0 -1 111 -1027110910 -2134185009 -929405952 -2136053004
            -258475472 1459516541 -68167008 -420488195</internalNodes>
          <leafValues>
            -5.4110419750213623e-01 3.2295840978622437e-01</leafValues></_></weakClassifiers></_>
    <!-- stage 7 -->
    <_>
      <maxWeakCount>10</maxWeakCount>
      <stageThreshold>-1.0974333286285400e+00</stageThreshold>
      <weakClassifiers>
        <_>
          <internalNodes>
            0 -1 88 -268436481 -1342177281 -285219845 -352322817
            2147303421 192241485 -1025 2138522965</internalNodes>
          <leafValues>
            -3.4270539879798889e-01 6.9556498527526855e-01</leafValues></_>
        <_>
          <internalNodes>
            0 -1 33 -1216162420 -8756 -513 -8196 -1208549384 -12290
            -1140916230 -1079128</internalNodes>
          <leafValues>
            -4.4386026263237000e-01 5.6603336334228516e-01</leafValues></_>
        <_>
          <internalNodes>
            0 -1 107 -336616958 -336659477 1730455808 -5440602 -8442548
            -873660791 -403721340 -268437521</internalNodes>
          <leafValues>
            -5.0365209579467773e-01 4.6835261583328247e-01</leafValues></_>
        <_>
          <internalNodes>
            0 -1 72 -2147286389 -70025217 -94906401 -77613105 -211812377
            -276546 -68161553 -234125681</internalNodes>
          <leafValues>
            -4.8130735754966736e-01 4.7395527362823486e-01</leafValues></_>
        <_>
          <internalNodes>
            0 -1 46 -1651375944 -4335147 1026562232 -26124 -319092497
            -1363 1072339195 -25139</internalNodes>
          <leafValues>
            -5.4214197397232056e-01 3.9272329211235046e-01</leafValues></_>
        <_>
          <internalNodes>
            0 -1 13 -487592210 1357423310 -59839346 -672281874
            -211943745 -1468382209 -1572865 -603979777</internalNodes>
          <leafValues>
            -4.9542057514190674e-01 3.8756126165390015e-01</leafValues></_>
        <_>
          <internalNodes>
            0 -1 41 -1255137800 -499715 -10494209 2147425785 429963992
            -1073807938 260103931 -5743203</internalNodes>
          <leafValues>
            -4.8890444636344910e-01 3.8769415020942688e-01</leafValues></_>
        <_>
          <internalNodes>
            0 -1 87 -18874386 -859113234 -1433671442 -571478018
            2004206884 1143045172 -9971787 -646455301</internalNodes>
          <leafValues>
            -4.8125827312469482e-01 3.9708721637725830e-01</leafValues></_>
        <_>
          <internalNodes>
            0 -1 55 -2566 578336746 -343399928 -1079465048 -222791691
            92032348 1073168272 -2187</internalNodes>
          <leafValues>
            -4.2857185006141663e-01 4.3496340513229370e-01</leafValues></_>
        <_>
          <internalNodes>
            0 -1 27 -1325378220 -134654507 -557057 -37784171 -1121386529
            -198465 -1164640263 -23046988</internalNodes>
          <leafValues>
            -4.6315568685531616e-01 4.2057958245277405e-01</leafValues></_></weakClassifiers></_>
    <!-- stage 8 -->
    <_>
      <maxWeakCount>10</maxWeakCount>
      <stageThreshold>-1.1506279706954956e+00</stageThreshold>
      <weakClassifiers>
        <_>
          <internalNodes>
            0 -1 64 -353370130 1358954491 -68157462 -201588754
            -537921537 -67109889 -33554433 -1</internalNodes>
          <leafValues>
            -3.2527130842208862e-01 6.9095635414123535e-01</leafValues></_>
        <_>
          <internalNodes>
            0 -1 9 -1909789138 -1638420 -13697025 -1114644 -1427112961
            -16385 -1360076801 -17888515</internalNodes>
          <leafValues>
            -4.5877766609191895e-01 5.2740526199340820e-01</leafValues></_>
        <_>
          <internalNodes>
            0 -1 30 489692408 -6595076 2145239039 2139052509 1057504764
            -4703299 -1078394881 -29712963</internalNodes>
          <leafValues>
            -5.4845184087753296e-01 4.2566484212875366e-01</leafValues></_>
        <_>
          <internalNodes>
            0 -1 37 -21586 -2212948 222560812 2147266344 -538003458
            536656796 -2314306 -1048593</internalNodes>
          <leafValues>
            -4.7970870137214661e-01 4.2856109142303467e-01</leafValues></_>
        <_>
          <internalNodes>
            0 -1 92 -553823139 1574917277 2104972799 1427657797 -4530434
            -7344194 -67441922 814219394</internalNodes>
          <leafValues>
            -4.8910084366798401e-01 4.1529056429862976e-01</leafValues></_>
        <_>
          <internalNodes>
            0 -1 29 1006629627 1006612730 431193599 503263734 855318779
            -1074121989 40033279 993228795</internalNodes>
          <leafValues>
            -5.0212413072586060e-01 3.3981576561927795e-01</leafValues></_>
        <_>
          <internalNodes>
            0 -1 97 -1143211009 999855093 -203566857 -202440705
            564998617 326374333 2080012287 2146426365</internalNodes>
          <leafValues>
            -4.1312015056610107e-01 4.0915524959564209e-01</leafValues></_>
        <_>
          <internalNodes>
            0 -1 2 1182789487 150791931 1868441958 -1409352449 905797117
            494697343 -8554123 1258216447</internalNodes>
          <leafValues>
            -4.6036785840988159e-01 3.7048986554145813e-01</leafValues></_>
        <_>
          <internalNodes>
            0 -1 78 -5177860 472972784 -4530434 515815933 431496700
            951384573 1006337967 2147473917</internalNodes>
          <leafValues>
            -5.3053730726242065e-01 3.2877701520919800e-01</leafValues></_>
        <_>
          <internalNodes>
            0 -1 50 -2147237853 -135266657 -971132961 -81005057
            -205786129 -2101521 -491782409 -1029455230</internalNodes>
          <leafValues>
            -3.7108919024467468e-01 4.3732699751853943e-01</leafValues></_></weakClassifiers></_>
    <!-- stage 9 -->
    <_>
      <maxWeakCount>9</maxWeakCount>
      <stageThreshold>-1.2634902000427246e+00</stageThreshold>
      <weakClassifiers>
        <_>
          <internalNodes>
            0 -1 82 1077376819 -34953 -1 -559113 -1 -1 -4196353
            -1145407689</internalNodes>
          <leafValues>
            -2.5296869874000549e-01 7.2584223747253418e-01</leafValues></_>
        <_>
          <internalNodes>
            0 -1 1 -286265361 787410606 -1 -268439569 -4194305
            1073741815 -513 -8707</internalNodes>
          <leafValues>
            -3.6983969807624817e-01 6.3731592893600464e-01</leafValues></_>
        <_>
          <internalNodes>
            0 -1 91 -1 -1073971203 -2281476 2147434495 1039949309
            500981213 1073569789 -32771</internalNodes>
          <leafValues>
            -4.6226909756660461e-01 4.8734551668167114e-01</leafValues></_>
        <_>
          <internalNodes>
            0 -1 95 276848117 -182273 -1 -33289 -1162166273 -1
            -1074855937 -1078445378</internalNodes>
          <leafValues>
            -4.0467581152915955e-01 5.3991824388504028e-01</leafValues></_>
        <_>
          <internalNodes>
            0 -1 62 -3073 1023211519 352664063 1073086431 368391157
            217871868 1440044541 2113798143</internalNodes>
          <leafValues>
            -5.3338342905044556e-01 3.7905555963516235e-01</leafValues></_>
        <_>
          <internalNodes>
            0 -1 76 2142264536 -2130951 2067431421 -17487 2109234680
            -66567 -89456673 -80019495</internalNodes>
          <leafValues>
            -4.5477253198623657e-01 4.5715439319610596e-01</leafValues></_>
        <_>
          <internalNodes>
            0 -1 17 1937236974 830341115 -206727254 -1343688728
            1904079357 1434273780 -202379281 1912471535</internalNodes>
          <leafValues>
            -5.1482278108596802e-01 3.6054724454879761e-01</leafValues></_>
        <_>
          <internalNodes>
            0 -1 109 -2001752318 -520224789 2011991564 -805400594
            -1065636 -33803 -1065452 -805324881</internalNodes>
          <leafValues>
            -5.2249521017074585e-01 3.3387327194213867e-01</leafValues></_>
        <_>
          <internalNodes>
            0 -1 8 -290585346 -8509830 -41959425 -1079879618 -856916483
            -1075217670 -38100997 -64323590</internalNodes>
          <leafValues>
            -4.7770756483078003e-01 3.8968345522880554e-01</leafValues></_></weakClassifiers></_>
    <!-- stage 10 -->
    <_>
      <maxWeakCount>10</maxWeakCount>
      <stageThreshold>-9.5970690250396729e-01</stageThreshold>
      <weakClassifiers>
        <_>
          <internalNodes>
            0 -1 52 -89461078 -8818 -1275387222 -72621398 -1431633942
            -1041 -1146445078 -72630102</internalNodes>
          <leafValues>
            -2.6589992642402649e-01 6.8603187799453735e-01</leafValues></_>
        <_>
          <internalNodes>
            0 -1 21 -12886277 -8955272 -545597953 1511152989 -17115058
            -548774066 -568658953 -636813569</internalNodes>
          <leafValues>
            -3.5236695408821106e-01 6.3702636957168579e-01</leafValues></_>
        <_>
          <internalNodes>
            0 -1 79 -201328881 -67108865 -1 -10450 -67109889 -34603010
            -17 -67109089</internalNodes>
          <leafValues>
            -3.2373484969139099e-01 6.4968711137771606e-01</leafValues></_>
        <_>
          <internalNodes>
            0 -1 23 -1078231717 1063191885 520361311 1598488837
            1059919871 -1075889569 453320523 521076813</internalNodes>
          <leafValues>
            -5.0788217782974243e-01 4.1337713599205017e-01</leafValues></_>
        <_>
          <internalNodes>
            0 -1 18 -33596161 -33606145 -580942337 -2155073 2078179327
            2141110234 -15008769 739929770</internalNodes>
          <leafValues>
            -4.3485957384109497e-01 4.2842331528663635e-01</leafValues></_>
        <_>
          <internalNodes>
            0 -1 100 405799096 1572362364 1603538303 -952835 -1174520580
            -4285526 -1145398529 -25231</internalNodes>
          <leafValues>
            -5.4032427072525024e-01 3.2648104429244995e-01</leafValues></_>
        <_>
          <internalNodes>
            0 -1 45 -5249014 -612409598 -955753718 -16748786 -8750550
            -71825110 -83101190 -12583045</internalNodes>
          <leafValues>
            -5.7001191377639771e-01 3.1243827939033508e-01</leafValues></_>
        <_>
          <internalNodes>
            0 -1 83 -2135786665 -17401865 -638353409 -38381609
            -1107628033 -307461 1019149823 -1113433357</internalNodes>
          <leafValues>
            -4.1074693202972412e-01 4.1409853100776672e-01</leafValues></_>
        <_>
          <internalNodes>
            0 -1 49 -29778 527473034 1563166728 1601802126 527208110
            235415576 -12402769 -537133073</internalNodes>
          <leafValues>
            -4.5052078366279602e-01 4.0541860461235046e-01</leafValues></_>
        <_>
          <internalNodes>
            0 -1 19 -12906406 527916505 807015155 269958239 -1742792630
            442722498 840643411 2122313727</internalNodes>
          <leafValues>
            -5.3807801008224487e-01 3.1061288714408875e-01</leafValues></_></weakClassifiers></_>
    <!-- stage 11 -->
    <_>
      <maxWeakCount>9</maxWeakCount>
      <stageThreshold>-1.4598569869995117e+00</stageThreshold>
      <weakClassifiers>
        <_>
          <internalNodes>
            0 -1 56 -357848574 -401932342 -376444768 -294 -359946240
            -125044277 -285226552 -1</internalNodes>
          <leafValues>
            -4.3005180358886719e-01 6.7646783590316772e-01</leafValues></_>
        <_>
          <internalNodes>
            0 -1 0 -1364530518 -73040 -1091379201 -80030731 -1342180353
            -272147 -1343236099 -10795</internalNodes>
          <leafValues>
            -4.6293535828590393e-01 5.3502571582794189e-01</leafValues></_>
        <_>
          <internalNodes>
            0 -1 103 1006629631 1005585372 1603236863 932829149
            1070507247 993540264 1056746239 1005351156</internalNodes>
          <leafValues>
            -4.8729872703552246e-01 4.3522676825523376e-01</leafValues></_>
        <_>
          <internalNodes>
            0 -1 80 -262145 150523117 -1048585 -1078001697 221781432
            -574816259 -1146421250 -262147</internalNodes>
          <leafValues>
            -3.8018447160720825e-01 5.5848944187164307e-01</leafValues></_>
        <_>
          <internalNodes>
            0 -1 29 -1409549317 33284337 -127927843 1433916727 603922683
            995586303 1634991615 159375103</internalNodes>
          <leafValues>
            -5.1120388507843018e-01 3.8804033398628235e-01</leafValues></_>
        <_>
          <internalNodes>
            0 -1 96 -1743201224 1609468373 -682369539 -1654664715
            411572392 -541452115 254462715 -45707</internalNodes>
          <leafValues>
            -4.8565357923507690e-01 3.6444851756095886e-01</leafValues></_>
        <_>
          <internalNodes>
            0 -1 11 -1365112742 1334772858 962478030 993942810
            -821928232 -286278148 1024375551 -289735297</internalNodes>
          <leafValues>
            -5.4244983196258545e-01 3.3143961429595947e-01</leafValues></_>
        <_>
          <internalNodes>
            0 -1 60 -151063998 1086513378 -165752078 -793010435
            -231738654 1087568522 -162269449 -188743681</internalNodes>
          <leafValues>
            -5.4809701442718506e-01 3.4094205498695374e-01</leafValues></_>
        <_>
          <internalNodes>
            0 -1 89 -1027611357 -335851013 -805315471 -71568397
            -1019501721 -739251365 1702359671 1080555059</internalNodes>
          <leafValues>
            -4.9112963676452637e-01 3.6913517117500305e-01</leafValues></_></weakClassifiers></_>
    <!-- stage 12 -->
    <_>
      <maxWeakCount>11</maxWeakCount>
      <stageThreshold>-1.4590049982070923e+00</stageThreshold>
      <weakClassifiers>
        <_>
          <internalNodes>
            0 -1 70 -65538 -1615323652 -213000 -1078452740 -6
            -1364700164 2147418109 -40963</internalNodes>
          <leafValues>
            -3.5800695419311523e-01 6.4146512746810913e-01</leafValues></_>
        <_>
          <internalNodes>
            0 -1 22 -1873473295 -2569 -34080769 -133635 -1258439169
            -16777217 -1124466945 -50546435</internalNodes>
          <leafValues>
            -4.0978264808654785e-01 5.6474465131759644e-01</leafValues></_>
        <_>
          <internalNodes>
            0 -1 40 -1141638145 -33687553 -143148033 -708357 -1167327489
            805302271 994307067 2078260223</internalNodes>
          <leafValues>
            -3.8259044289588928e-01 4.8651534318923950e-01</leafValues></_>
        <_>
          <internalNodes>
            0 -1 5 -352321545 150781695 -1 -1073811457 535650173
            2113732095 -285245953 -285212673</internalNodes>
          <leafValues>
            -3.6298656463623047e-01 4.7720775008201599e-01</leafValues></_>
        <_>
          <internalNodes>
            0 -1 101 -2140707 -32882 -38069025 -543876085 -536952833
            -4204065 -374699794 -1979187200</internalNodes>
          <leafValues>
            -4.0863099694252014e-01 4.1552126407623291e-01</leafValues></_>
        <_>
          <internalNodes>
            0 -1 77 -2111634941 -2661 -808192129 -973733933 -608176233
            -264263 -25198745 -486822137</internalNodes>
          <leafValues>
            -4.4338390231132507e-01 3.8694220781326294e-01</leafValues></_>
        <_>
          <internalNodes>
            0 -1 57 523247097 1072962813 -1653064193 2147441149
            -1088750087 -268550660 967491327 -1079354147</internalNodes>
          <leafValues>
            -4.3434396386146545e-01 3.4720751643180847e-01</leafValues></_>
        <_>
          <internalNodes>
            0 -1 106 -808472830 -319816825 -2039691264 -370218069
            -1107176 -1954740417 -705759486 -944789758</internalNodes>
          <leafValues>
            -5.0707292556762695e-01 2.9415568709373474e-01</leafValues></_>
        <_>
          <internalNodes>
            0 -1 85 -1086668801 781199930 -8719109 918467550 968654268
            524047796 1073610175 431579101</internalNodes>
          <leafValues>
            -6.0180473327636719e-01 2.4787288904190063e-01</leafValues></_>
        <_>
          <internalNodes>
            0 -1 65 -536876992 1078363174 1435751942 1346895821
            -12585727 1081931124 -711984307 -603980034</internalNodes>
          <leafValues>
            -4.9572086334228516e-01 2.7754265069961548e-01</leafValues></_>
        <_>
          <internalNodes>
            0 -1 48 -1196403464 -1250863627 -1078470857 1434409145
            -2141552677 -50660355 975241195 137034177</internalNodes>
          <leafValues>
            -5.4771494865417480e-01 2.5597497820854187e-01</leafValues></_></weakClassifiers></_></stages>
  <features>
    <_>
      <rect>
        0 0 6 1</rect></_>
    <_>
      <rect>
        0 1 3 2</rect></_>
    <_>
      <rect>
        0 3 2 3</rect></_>
    <_>
      <rect>
        0 7 3 2</rect></_>
    <_>
      <rect>
        0 10 6 1</rect></_>
    <_>
      <rect>
        1 1 2 4</rect></_>
    <_>
      <rect>
        1 1 3 4</rect></_>
    <_>
      <rect>
        1 3 2 2</rect></_>
    <_>
      <rect>
        1 10 5 1</rect></_>
    <_>
      <rect>
        2 0 3 1</rect></_>
    <_>
      <rect>
        2 2 3 3</rect></_>
    <_>
      <rect>
        2 10 5 1</rect></_>
    <_>
      <rect>
        3 4 2 2</rect></_>
    <_>
      <rect>
        3 5 2 1</rect></_>
    <_>
      <rect>
        4 0 12 3</rect></_>
    <_>
      <rect>
        5 0 5 1</rect></_>
    <_>
      <rect>
        5 1 3 1</rect></_>
    <_>
      <rect>
        5 2 3 3</rect></_>
    <_>
      <rect>
        5 9 3 1</rect></_>
    <_>
      <rect>
        5 9 14 1</rect></_>
    <_>
      <rect>
        5 10 6 1</rect></_>
    <_>
      <rect>
        6 10 11 1</rect></_>
    <_>
      <rect>
        7 0 2 1</rect></_>
    <_>
      <rect>
        7 2 7 1</rect></_>
    <_>
      <rect>
        8 0 6 1</rect></_>
    <_>
      <rect>
        8 2 3 3</rect></_>
    <_>
      <rect>
        9 10 6 1</rect></_>
    <_>
      <rect>
        10 0 4 1</rect></_>
    <_>
      <rect>
        10 9 6 1</rect></_>
    <_>
      <rect>
        12 2 8 1</rect></_>
    <_>
      <rect>
        12 9 6 1</rect></_>
    <_>
      <rect>
        13 0 6 1</rect></_>
    <_>
      <rect>
        13 10 7 1</rect></_>
    <_>
      <rect>
        14 1 3 1</rect></_>
    <_>
      <rect>
        15 0 6 1</rect></_>
    <_>
      <rect>
        15 2 2 3</rect></_>
    <_>
      <rect>
        15 3 2 1</rect></_>
    <_>
      <rect>
        15 4 2 3</rect></_>
    <_>
      <rect>
        15 9 6 1</rect></_>
    <_>
      <rect>
        16 1 6 1</rect></_>
    <_>
      <rect>
        16 2 3 1</rect></_>
    <_>
      <rect>
        17 10 5 1</rect></_>
    <_>
      <rect>
        17 10 7 1</rect></_>
    <_>
      <rect>
        18 9 6 1</rect></_>
    <_>
      <rect>
        19 0 10 4</rect></_>
    <_>
      <rect>
        19 3 10 1</rect></_>
    <_>
      <rect>
        19 7 10 2</rect></_>
    <_>
      <rect>
        20 0 4 1</rect></_>
    <_>
      <rect>
        20 1 5 1</rect></_>
    <_>
      <rect>
        20 6 2 2</rect></_>
    <_>
      <rect>
        21 0 1 2</rect></_>
    <_>
      <rect>
        21 0 2 3</rect></_>
    <_>
      <rect>
        21 2 2 1</rect></_>
    <_>
      <rect>
        22 1 9 1</rect></_>
    <_>
      <rect>
        22 4 1 1</rect></_>
    <_>
      <rect>
        22 6 1 2</rect></_>
    <_>
      <rect>
        22 7 7 1</rect></_>
    <_>
      <rect>
        22 10 4 1</rect></_>
    <_>
      <rect>
        23 1 3 1</rect></_>
    <_>
      <rect>
        23 4 2 1</rect></_>
    <_>
      <rect>
        24 4 2 1</rect></_>
    <_>
      <rect>
        24 5 2 1</rect></_>
    <_>
      <rect>
        24 6 2 2</rect></_>
    <_>
      <rect>
        24 10 6 1</rect></_>
    <_>
      <rect>
        25 3 4 2</rect></_>
    <_>
      <rect>
        25 6 2 1</rect></_>
    <_>
      <rect>
        26 1 3 3</rect></_>
    <_>
      <rect>
        26 1 3 4</rect></_>
    <_>
      <rect>
        26 3 3 2</rect></_>
    <_>
      <rect>
        26 4 3 3</rect></_>
    <_>
      <rect>
        26 7 2 2</rect></_>
    <_>
      <rect>
        26 7 3 2</rect></_>
    <_>
      <rect>
        27 0 1 2</rect></_>
    <_>
      <rect>
        27 0 3 3</rect></_>
    <_>
      <rect>
        27 1 2 2</rect></_>
    <_>
      <rect>
        27 5 3 2</rect></_>
    <_>
      <rect>
        27 10 6 1</rect></_>
    <_>
      <rect>
        28 1 1 2</rect></_>
    <_>
      <rect>
        28 9 4 1</rect></_>
    <_>
      <rect>
        29 0 2 3</rect></_>
    <_>
      <rect>
        29 9 3 1</rect></_>
    <_>
      <rect>
        29 10 6 1</rect></_>
    <_>
      <rect>
        30 0 2 2</rect></_>
    <_>
      <rect>
        30 0 3 1</rect></_>
    <_>
      <rect>
        30 7 2 2</rect></_>
    <_>
      <rect>
        30 7 3 2</rect></_>
    <_>
      <rect>
        31 0 5 1</rect></_>
    <_>
      <rect>
        31 7 2 1</rect></_>
    <_>
      <rect>
        31 8 2 1</rect></_>
    <_>
      <rect>
        32 2 1 2</rect></_>
    <_>
      <rect>
        32 3 1 2</rect></_>
    <_>
      <rect>
        32 7 1 2</rect></_>
    <_>
      <rect>
        33 1 6 1</rect></_>
    <_>
      <rect>
        33 9 3 1</rect></_>
    <_>
      <rect>
        33 10 5 1</rect></_>
    <_>
      <rect>
        35 0 3 1</rect></_>
    <_>
      <rect>
        35 10 4 1</rect></_>
    <_>
      <rect>
        36 6 3 2</rect></_>
    <_>
      <rect>
        37 0 1 3</rect></_>
    <_>
      <rect>
        38 5 1 1</rect></_>
    <_>
      <rect>
        38 10 4 1</rect></_>
    <_>
      <rect>
        39 1 3 1</rect></_>
    <_>
      <rect>
        39 10 3 1</rect></_>
    <_>
      <rect>
        42 1 3 4</rect></_>
    <_>
      <rect>
        43 1 1 3</rect></_>
    <_>
      <rect>
        43 2 1 3</rect></_>
    <_>
      <rect>
        43 3 1 2</rect></_>
    <_>
      <rect>
        43 4 1 2</rect></_>
    <_>
      <rect>
        49 0 1 4</rect></_>
    <_>
      <rect>
        49 2 1 3</rect></_>
    <_>
      <rect>
        49 4 1 1</rect></_>
    <_>
      <rect>
        49 5 1 1</rect></_>
    <_>
      <rect>
        49 7 1 2</rect></_></features></cascade>
</opencv_storage>
