<?xml version="1.0"?>
<opencv_storage>
<cascade>
  <stageType>BOOST</stageType>
  <featureType>LBP</featureType>
  <height>13</height>
  <width>52</width>
  <stageParams>
    <boostType>GAB</boostType>
    <minHitRate>9.9500000476837158e-01</minHitRate>
    <maxFalseAlarm>4.4999998807907104e-01</maxFalseAlarm>
    <weightTrimRate>9.4999999999999996e-01</weightTrimRate>
    <maxDepth>1</maxDepth>
    <maxWeakCount>100</maxWeakCount></stageParams>
  <featureParams>
    <maxCatCount>256</maxCatCount>
    <featSize>1</featSize></featureParams>
  <stageNum>13</stageNum>
  <stages>
    <!-- stage 0 -->
    <_>
      <maxWeakCount>5</maxWeakCount>
      <stageThreshold>-3.3136692643165588e-01</stageThreshold>
      <weakClassifiers>
        <_>
          <internalNodes>
            0 -1 70 84705418 -1134674 1070533262 -3240178 -1 -273
            -1052673 -20561</internalNodes>
          <leafValues>
            -4.5588856935501099e-01 8.8858193159103394e-01</leafValues></_>
        <_>
          <internalNodes>
            0 -1 94 268439760 1569725936 -577233411 -2288172 -1742202696
            -21456648 -1962353416 -4716072</internalNodes>
          <leafValues>
            -5.3578752279281616e-01 7.8727638721466064e-01</leafValues></_>
        <_>
          <internalNodes>
            0 -1 43 288364024 487593172 -34210305 -537043559 -1985429510
            -2557720 -1081417733 -1079504740</internalNodes>
          <leafValues>
            -5.3220570087432861e-01 7.0459437370300293e-01</leafValues></_>
        <_>
          <internalNodes>
            0 -1 13 -286283090 801812207 251825834 -1351701554 -16401
            -3073 -1048593 -17</internalNodes>
          <leafValues>
            -5.8221304416656494e-01 6.1555480957031250e-01</leafValues></_>
        <_>
          <internalNodes>
            0 -1 19 285217040 1597067600 523328989 2136278101
            -1666172676 -4681491 521707517 -1893203820</internalNodes>
          <leafValues>
            -5.6801509857177734e-01 5.7696008682250977e-01</leafValues></_></weakClassifiers></_>
    <!-- stage 1 -->
    <_>
      <maxWeakCount>6</maxWeakCount>
      <stageThreshold>-5.3801023960113525e-01</stageThreshold>
      <weakClassifiers>
        <_>
          <internalNodes>
            0 -1 72 -2118998 1610459626 905709704 -35806258 -536892433
            1022733051 -4161 -1</internalNodes>
          <leafValues>
            -2.5097176432609558e-01 9.0498834848403931e-01</leafValues></_>
        <_>
          <internalNodes>
            0 -1 68 353374704 -4923908 490561021 -6464003 -1465336328
            -1078415428 1044029439 -15196723</internalNodes>
          <leafValues>
            -3.9072114229202271e-01 7.9079812765121460e-01</leafValues></_>
        <_>
          <internalNodes>
            0 -1 34 269504757 -168487171 -1087537665 2134465725
            547649791 -4674821 -1884632577 -1153957635</internalNodes>
          <leafValues>
            -3.9831823110580444e-01 7.4103623628616333e-01</leafValues></_>
        <_>
          <internalNodes>
            0 -1 109 -1022385662 -336593937 1107304704 -917637138
            -715663616 1340473289 -212875520 -137366645</internalNodes>
          <leafValues>
            -5.0520813465118408e-01 6.0806977748870850e-01</leafValues></_>
        <_>
          <internalNodes>
            0 -1 27 488641552 -1025992 1598928893 -549626787 -1142636804
            -2319171 257605119 -542630471</internalNodes>
          <leafValues>
            -5.0925159454345703e-01 5.6042253971099854e-01</leafValues></_>
        <_>
          <internalNodes>
            0 -1 7 -1563971922 214738670 -279991518 -1527864178
            2147483631 2046819263 -285217809 -318771473</internalNodes>
          <leafValues>
            -6.5619689226150513e-01 4.0318265557289124e-01</leafValues></_></weakClassifiers></_>
    <!-- stage 2 -->
    <_>
      <maxWeakCount>7</maxWeakCount>
      <stageThreshold>-1.0993751287460327e+00</stageThreshold>
      <weakClassifiers>
        <_>
          <internalNodes>
            0 -1 71 -1574002 -1115153 1107591818 -3212338 -204484406
            -1613843062 -35651633 -1</internalNodes>
          <leafValues>
            -1.5530917048454285e-01 8.7758868932723999e-01</leafValues></_>
        <_>
          <internalNodes>
            0 -1 33 1006317819 838406385 431963647 499061245 548544763
            1003430139 2272255 188681659</internalNodes>
          <leafValues>
            -5.2253860235214233e-01 6.9208747148513794e-01</leafValues></_>
        <_>
          <internalNodes>
            0 -1 99 472914168 1569772756 2146794973 -141827 -1665656644
            -1113057032 -1145504769 -1078129444</internalNodes>
          <leafValues>
            -5.6759375333786011e-01 5.7966136932373047e-01</leafValues></_>
        <_>
          <internalNodes>
            0 -1 57 -2147254270 -136316177 -898633985 -8394769
            -605032465 -1053001 -553653521 -353377649</internalNodes>
          <leafValues>
            -5.0470411777496338e-01 5.9818607568740845e-01</leafValues></_>
        <_>
          <internalNodes>
            0 -1 37 823139568 2100320348 -1076150785 1610290589
            -1145520136 -1078941443 252231679 -1626699299</internalNodes>
          <leafValues>
            -5.3982150554656982e-01 5.2250599861145020e-01</leafValues></_>
        <_>
          <internalNodes>
            0 -1 39 -705712222 279748810 100928512 1365084158 -83889169
            410291857 -309350514 -1048577</internalNodes>
          <leafValues>
            -4.8070248961448669e-01 5.3438806533813477e-01</leafValues></_>
        <_>
          <internalNodes>
            0 -1 91 830479824 -137004036 -1080410627 -45081196
            -1196901895 -475394 -1157578820 -1112539008</internalNodes>
          <leafValues>
            -5.3828805685043335e-01 4.6947813034057617e-01</leafValues></_></weakClassifiers></_>
    <!-- stage 3 -->
    <_>
      <maxWeakCount>8</maxWeakCount>
      <stageThreshold>-7.1402645111083984e-01</stageThreshold>
      <weakClassifiers>
        <_>
          <internalNodes>
            0 -1 77 1932503562 2012149758 -16323830 -5313874 1902116815
            821557247 -10486834 -201326593</internalNodes>
          <leafValues>
            -2.2191400825977325e-01 8.5612517595291138e-01</leafValues></_>
        <_>
          <internalNodes>
            0 -1 1 167772674 -122318 -1090597377 -42285316 -1345405953
            -513 -1879142913 -1343353364</internalNodes>
          <leafValues>
            -4.7843554615974426e-01 6.6473054885864258e-01</leafValues></_>
        <_>
          <internalNodes>
            0 -1 8 -422580497 16574447 -134224209 -1426063361 -134742017
            351666175 -1048577 -1</internalNodes>
          <leafValues>
            -4.4977569580078125e-01 6.4255416393280029e-01</leafValues></_>
        <_>
          <internalNodes>
            0 -1 18 387979408 -779812 -1073905667 2136871989 -76482308
            -4359748 -16843777 -32973636</internalNodes>
          <leafValues>
            -5.4892039299011230e-01 5.1006793975830078e-01</leafValues></_>
        <_>
          <internalNodes>
            0 -1 101 -269490686 -294661633 -2138701824 -437328690
            -146036992 1452234479 -403758592 -403704149</internalNodes>
          <leafValues>
            -4.7858446836471558e-01 5.2242320775985718e-01</leafValues></_>
        <_>
          <internalNodes>
            0 -1 47 489816120 -12880387 498073784 -1120166500
            -1078191425 -1095172356 733547711 -1073767011</internalNodes>
          <leafValues>
            -5.3348302841186523e-01 4.3566161394119263e-01</leafValues></_>
        <_>
          <internalNodes>
            0 -1 113 -993007870 -1030751573 -465367424 -2064651330
            -134224892 -1041500709 -543168 -405803345</internalNodes>
          <leafValues>
            -4.5894366502761841e-01 4.7991138696670532e-01</leafValues></_>
        <_>
          <internalNodes>
            0 -1 56 -16466 1069432508 487588352 -4415570 2126297056
            213131132 -513060 -134217873</internalNodes>
          <leafValues>
            -4.5297709107398987e-01 4.4181275367736816e-01</leafValues></_></weakClassifiers></_>
    <!-- stage 4 -->
    <_>
      <maxWeakCount>8</maxWeakCount>
      <stageThreshold>-7.7488899230957031e-01</stageThreshold>
      <weakClassifiers>
        <_>
          <internalNodes>
            0 -1 69 1624114186 -185674330 -67634230 -67722590 -67108865
            -67109377 -1041 -67130449</internalNodes>
          <leafValues>
            -2.9702624678611755e-01 8.3571940660476685e-01</leafValues></_>
        <_>
          <internalNodes>
            0 -1 84 -8585219 1026883583 -541065217 -65537 285234684
            1572372477 -1078296577 -1027</internalNodes>
          <leafValues>
            -2.9707658290863037e-01 7.6091170310974121e-01</leafValues></_>
        <_>
          <internalNodes>
            0 -1 11 -285282561 16575743 -269702417 150929151 -33687553
            1440546815 -524289 -65537</internalNodes>
          <leafValues>
            -4.5895755290985107e-01 6.0135811567306519e-01</leafValues></_>
        <_>
          <internalNodes>
            0 -1 90 1026559160 -1073938440 2147237885 -2556460
            -1137115144 -67616803 -1081409537 -4583939</internalNodes>
          <leafValues>
            -5.5660676956176758e-01 4.5314627885818481e-01</leafValues></_>
        <_>
          <internalNodes>
            0 -1 46 819920906 -33604677 260771342 -1102066 1828696063
            -6292481 -559420449 -97</internalNodes>
          <leafValues>
            -5.8909523487091064e-01 4.2040655016899109e-01</leafValues></_>
        <_>
          <internalNodes>
            0 -1 53 269504765 -167963203 -570589185 -436867 -1107623937
            -4195075 -1079054341 -1113956867</internalNodes>
          <leafValues>
            -4.3775945901870728e-01 5.1414275169372559e-01</leafValues></_>
        <_>
          <internalNodes>
            0 -1 26 -489717238 -609243221 118360072 -410063926 -5196
            2137325563 -26785024 -1048850</internalNodes>
          <leafValues>
            -4.7951579093933105e-01 4.3334567546844482e-01</leafValues></_>
        <_>
          <internalNodes>
            0 -1 6 -286390050 -35764486 -1127305474 2134400030
            -290704648 -1081369153 -277188615 -30344534</internalNodes>
          <leafValues>
            -4.9891483783721924e-01 3.6797150969505310e-01</leafValues></_></weakClassifiers></_>
    <!-- stage 5 -->
    <_>
      <maxWeakCount>9</maxWeakCount>
      <stageThreshold>-1.0086802244186401e+00</stageThreshold>
      <weakClassifiers>
        <_>
          <internalNodes>
            0 -1 73 -137370870 -741344306 1358987778 -678756466
            -229932278 331602143 -229123346 -1</internalNodes>
          <leafValues>
            -2.2790892422199249e-01 8.4557312726974487e-01</leafValues></_>
        <_>
          <internalNodes>
            0 -1 38 -875566454 1476391883 0 -774911166 -2097169
            -624964369 -1072705588 -17</internalNodes>
          <leafValues>
            -3.5654434561729431e-01 7.1247768402099609e-01</leafValues></_>
        <_>
          <internalNodes>
            0 -1 107 -1068523006 -6233 -886422784 -13637713 -67114019
            -806500549 -17832178 -269491285</internalNodes>
          <leafValues>
            -3.9656734466552734e-01 6.1487138271331787e-01</leafValues></_>
        <_>
          <internalNodes>
            0 -1 49 489690620 490266620 1065352191 -8707 460913146
            1060437996 490266623 2133515773</internalNodes>
          <leafValues>
            -5.9770852327346802e-01 4.0669816732406616e-01</leafValues></_>
        <_>
          <internalNodes>
            0 -1 62 -137365758 -235931217 1946186562 -67379329
            -146540990 274134599 1933816791 -134742025</internalNodes>
          <leafValues>
            -4.8638892173767090e-01 4.4699385762214661e-01</leafValues></_>
        <_>
          <internalNodes>
            0 -1 40 957354256 -173639 -539140097 -4628993 -1079282763
            -4199173 -1078273025 -14006084</internalNodes>
          <leafValues>
            -5.2865642309188843e-01 4.3303629755973816e-01</leafValues></_>
        <_>
          <internalNodes>
            0 -1 93 -2097157 -1081559059 -1074455284 1073489918
            299112412 363089757 -713220 -3</internalNodes>
          <leafValues>
            -4.0606960654258728e-01 4.9848181009292603e-01</leafValues></_>
        <_>
          <internalNodes>
            0 -1 14 49742847 903159175 2080232959 498074606 414056191
            -38474755 954792927 814541256</internalNodes>
          <leafValues>
            -5.0363761186599731e-01 3.6252444982528687e-01</leafValues></_>
        <_>
          <internalNodes>
            0 -1 104 -171448573 -8526197 -1299448282 -68162069
            1934849280 1963097924 -152618237 -134744233</internalNodes>
          <leafValues>
            -3.8288140296936035e-01 4.8443883657455444e-01</leafValues></_></weakClassifiers></_>
    <!-- stage 6 -->
    <_>
      <maxWeakCount>10</maxWeakCount>
      <stageThreshold>-8.4220129251480103e-01</stageThreshold>
      <weakClassifiers>
        <_>
          <internalNodes>
            0 -1 10 -286347730 149729006 -286348786 -865145106 -17
            1912602111 -268439697 -4113</internalNodes>
          <leafValues>
            -2.3787640035152435e-01 8.1866055727005005e-01</leafValues></_>
        <_>
          <internalNodes>
            0 -1 45 -74929270 -2622549 866069162 -2121078 -72811606
            -4210689 -1146443094 -74732918</internalNodes>
          <leafValues>
            -4.0299856662750244e-01 6.7141044139862061e-01</leafValues></_>
        <_>
          <internalNodes>
            0 -1 88 -65537 534315007 -550567969 -1074465793 1567972861
            498359805 1576402943 1576894461</internalNodes>
          <leafValues>
            -5.5031824111938477e-01 4.6970093250274658e-01</leafValues></_>
        <_>
          <internalNodes>
            0 -1 22 1314929 -33557007 -570564609 -18689 -184680961 -1537
            -50464001 -50358019</internalNodes>
          <leafValues>
            -4.8161935806274414e-01 4.9795308709144592e-01</leafValues></_>
        <_>
          <internalNodes>
            0 -1 60 -829431166 -1060116606 -993803776 -993015825
            -901086202 1114070646 -704388026 -755238913</internalNodes>
          <leafValues>
            -5.0134080648422241e-01 4.4212847948074341e-01</leafValues></_>
        <_>
          <internalNodes>
            0 -1 50 489692668 1064851932 -10911745 2147308925
            -1078265862 -983556 -1614873605 -30877251</internalNodes>
          <leafValues>
            -5.2844160795211792e-01 4.1481885313987732e-01</leafValues></_>
        <_>
          <internalNodes>
            0 -1 100 -498630142 -135270481 -125312793 -184552566 -2609
            -85992581 -622861426 -223352318</internalNodes>
          <leafValues>
            -4.3737074732780457e-01 4.2908480763435364e-01</leafValues></_>
        <_>
          <internalNodes>
            0 -1 63 -101105445 -67415791 -140673025 2131382276 -1033253
            -67110405 -71815189 -96861952</internalNodes>
          <leafValues>
            -3.4320834279060364e-01 5.3940880298614502e-01</leafValues></_>
        <_>
          <internalNodes>
            0 -1 112 -1898993918 -2065781573 -2060843008 -1899050202
            -738739948 2147084654 -8929792 -806375497</internalNodes>
          <leafValues>
            -4.7083935141563416e-01 3.6734008789062500e-01</leafValues></_>
        <_>
          <internalNodes>
            0 -1 105 -1925706568 500460988 -1082380804 -570567688
            1032330492 -1525027 -1074085890 -1320472</internalNodes>
          <leafValues>
            -4.9663844704627991e-01 3.5064017772674561e-01</leafValues></_></weakClassifiers></_>
    <!-- stage 7 -->
    <_>
      <maxWeakCount>10</maxWeakCount>
      <stageThreshold>-7.3382711410522461e-01</stageThreshold>
      <weakClassifiers>
        <_>
          <internalNodes>
            0 -1 35 -1216348160 -134331316 -8230 -157236 -1213399096
            -8210 -1074352408 -3405688</internalNodes>
          <leafValues>
            -1.2935580313205719e-01 8.2773327827453613e-01</leafValues></_>
        <_>
          <internalNodes>
            0 -1 64 -68159506 1895560191 -136053778 -202178562
            -536872961 2044721919 -168035841 -1</internalNodes>
          <leafValues>
            -3.8668093085289001e-01 6.2589931488037109e-01</leafValues></_>
        <_>
          <internalNodes>
            0 -1 30 1026563480 1073681624 1073102847 1065228661
            1060645304 -1074127112 797458431 1040858109</internalNodes>
          <leafValues>
            -6.6892808675765991e-01 4.0751403570175171e-01</leafValues></_>
        <_>
          <internalNodes>
            0 -1 97 -20552 -81922 498870456 -516 484968872 -1087885352
            -34817028 -3</internalNodes>
          <leafValues>
            -5.2593046426773071e-01 4.3035408854484558e-01</leafValues></_>
        <_>
          <internalNodes>
            0 -1 41 -292557174 -1060183550 -905289216 -1064390966
            -5520814 49008596 -721951034 -84934657</internalNodes>
          <leafValues>
            -5.0348895788192749e-01 4.4933053851127625e-01</leafValues></_>
        <_>
          <internalNodes>
            0 -1 28 -1190111915 -34318851 -557057 2147450365 -1073954827
            -262661 -1073898241 -1079453187</internalNodes>
          <leafValues>
            -4.0149524807929993e-01 5.3451347351074219e-01</leafValues></_>
        <_>
          <internalNodes>
            0 -1 16 -84941074 -800133906 -298848530 -607130386
            -143131457 -1997462037 -135266321 -68159489</internalNodes>
          <leafValues>
            -4.3281278014183044e-01 4.3391585350036621e-01</leafValues></_>
        <_>
          <internalNodes>
            0 -1 82 -1283435280 -765488 -1611678210 -552588044
            -1615136001 -6324770 -1124139009 -72335724</internalNodes>
          <leafValues>
            -4.4328552484512329e-01 4.1646143794059753e-01</leafValues></_>
        <_>
          <internalNodes>
            0 -1 110 -1009794558 -1548748053 -1602215424 -856200537
            -700211136 -909148837 -218630336 -605031445</internalNodes>
          <leafValues>
            -4.7255668044090271e-01 3.9575770497322083e-01</leafValues></_>
        <_>
          <internalNodes>
            0 -1 95 -286269208 -1026898708 -272112448 -895815940
            -100811267 1081212341 -8659720 -524353</internalNodes>
          <leafValues>
            -3.7717676162719727e-01 4.5248439908027649e-01</leafValues></_></weakClassifiers></_>
    <!-- stage 8 -->
    <_>
      <maxWeakCount>10</maxWeakCount>
      <stageThreshold>-6.8687814474105835e-01</stageThreshold>
      <weakClassifiers>
        <_>
          <internalNodes>
            0 -1 75 -21576 -42684482 2042112440 -172548 -570576962
            -34291715 -34013186 -3</internalNodes>
          <leafValues>
            -5.7109028100967407e-02 8.3764398097991943e-01</leafValues></_>
        <_>
          <internalNodes>
            0 -1 15 -1373180374 -324079954 -139506130 -235934002 -1
            -1312769 -68159489 -68157459</internalNodes>
          <leafValues>
            -3.9229437708854675e-01 6.2638270854949951e-01</leafValues></_>
        <_>
          <internalNodes>
            0 -1 48 -13628248 -545965139 -1178981746 -4210929
            -1413967953 -1345811831 -1349873713 -276067441</internalNodes>
          <leafValues>
            -5.0549781322479248e-01 4.8825478553771973e-01</leafValues></_>
        <_>
          <internalNodes>
            0 -1 80 -1017121017 -69272594 -67109377 -1050786 -1041
            -118492213 -154148881 -469762513</internalNodes>
          <leafValues>
            -3.5282161831855774e-01 5.9591424465179443e-01</leafValues></_>
        <_>
          <internalNodes>
            0 -1 98 353377789 494149117 -2121729 -637534211 523263485
            1576879581 -1078198273 1610604253</internalNodes>
          <leafValues>
            -5.1918447017669678e-01 4.1288915276527405e-01</leafValues></_>
        <_>
          <internalNodes>
            0 -1 59 813715676 -168470529 -2138113 -37912577 -1313538069
            -267350 -1314259985 278937794</internalNodes>
          <leafValues>
            -6.7884802818298340e-01 2.3964551091194153e-01</leafValues></_>
        <_>
          <internalNodes>
            0 -1 65 -81072094 -439687998 -84228384 -33895690 -95227129
            1109653531 1936650740 -674316305</internalNodes>
          <leafValues>
            -4.6405014395713806e-01 3.7149158120155334e-01</leafValues></_>
        <_>
          <internalNodes>
            0 -1 114 -134218880 -1348419606 -1812401248 -172428312
            -673185872 -891750772 -672204832 -4194321</internalNodes>
          <leafValues>
            -3.8989561796188354e-01 4.7402709722518921e-01</leafValues></_>
        <_>
          <internalNodes>
            0 -1 24 523245041 -174124 -1082925089 -44011 1511308285
            -106499 -70657 -22389571</internalNodes>
          <leafValues>
            -3.9617258310317993e-01 4.6591746807098389e-01</leafValues></_>
        <_>
          <internalNodes>
            0 -1 29 -896540662 -1068571922 -1968242688 -1024463124
            -17825902 1082119916 -565449558 -789846389</internalNodes>
          <leafValues>
            -3.9277043938636780e-01 4.3745759129524231e-01</leafValues></_></weakClassifiers></_>
    <!-- stage 9 -->
    <_>
      <maxWeakCount>10</maxWeakCount>
      <stageThreshold>-7.7115380764007568e-01</stageThreshold>
      <weakClassifiers>
        <_>
          <internalNodes>
            0 -1 23 -1090471168 -2293884 -2376790 -83288 -1173701718
            -4148 -1155355992 -7667680</internalNodes>
          <leafValues>
            -9.9825590848922729e-02 8.2320630550384521e-01</leafValues></_>
        <_>
          <internalNodes>
            0 -1 9 -822087681 16314239 -268508433 -1426133249 2147319295
            1575813119 -131077 -65537</internalNodes>
          <leafValues>
            -3.2360890507698059e-01 6.5405350923538208e-01</leafValues></_>
        <_>
          <internalNodes>
            0 -1 86 -1 -4390913 -147457 -1107361793 1567981053 683171281
            -131080 -41475</internalNodes>
          <leafValues>
            -4.2967680096626282e-01 5.4395866394042969e-01</leafValues></_>
        <_>
          <internalNodes>
            0 -1 79 353375480 -358920 1597791640 -2097707 481828028
            -197128 -1162166273 -4530691</internalNodes>
          <leafValues>
            -5.5569529533386230e-01 3.9026957750320435e-01</leafValues></_>
        <_>
          <internalNodes>
            0 -1 52 -2147253465 -67109953 -603979777 -67108865 -84939793
            -67112977 -352583681 -1027874129</internalNodes>
          <leafValues>
            -4.2579180002212524e-01 4.9076747894287109e-01</leafValues></_>
        <_>
          <internalNodes>
            0 -1 4 -269562625 -3191297 1325436351 1330138463 -828748546
            -192774 1581965311 1318735871</internalNodes>
          <leafValues>
            -4.6908333897590637e-01 3.9454472064971924e-01</leafValues></_>
        <_>
          <internalNodes>
            0 -1 67 -6802 1087366230 1438635604 1346895831 -3135
            1155462637 -136316961 -102760481</internalNodes>
          <leafValues>
            -4.5441457629203796e-01 4.0130332112312317e-01</leafValues></_>
        <_>
          <internalNodes>
            0 -1 85 -525184973 -151555085 -2097153 -420055561
            -1147994433 -268698641 -72286209 582121267</internalNodes>
          <leafValues>
            -4.7409781813621521e-01 3.5200345516204834e-01</leafValues></_>
        <_>
          <internalNodes>
            0 -1 111 -70277630 -1058305396 797238048 -672137280 -2097408
            1131347467 -404232446 -135276551</internalNodes>
          <leafValues>
            -4.4254285097122192e-01 3.6202016472816467e-01</leafValues></_>
        <_>
          <internalNodes>
            0 -1 25 284299519 1976897663 192516095 2146587257 29031933
            1954086893 732626943 985331884</internalNodes>
          <leafValues>
            -5.3694999217987061e-01 2.9733738303184509e-01</leafValues></_></weakClassifiers></_>
    <!-- stage 10 -->
    <_>
      <maxWeakCount>11</maxWeakCount>
      <stageThreshold>-9.6268510818481445e-01</stageThreshold>
      <weakClassifiers>
        <_>
          <internalNodes>
            0 -1 66 -974131570 13628135 -575697778 1372520430 -889192705
            16708607 -67108865 -234881025</internalNodes>
          <leafValues>
            -1.1765377223491669e-01 8.0769944190979004e-01</leafValues></_>
        <_>
          <internalNodes>
            0 -1 31 808456272 -175369 -655361 -166955 -134349825 -257
            -33555457 -1179643655</internalNodes>
          <leafValues>
            -4.7603115439414978e-01 5.5831623077392578e-01</leafValues></_>
        <_>
          <internalNodes>
            0 -1 12 -269488209 783216302 -257 -134217745 -65 1073741807
            -3145729 -8705</internalNodes>
          <leafValues>
            -3.8188588619232178e-01 6.0101532936096191e-01</leafValues></_>
        <_>
          <internalNodes>
            0 -1 42 422578616 1069030909 532295679 -1073799171 -8634433
            -1074118657 -459777 -1078272515</internalNodes>
          <leafValues>
            -5.4982739686965942e-01 4.1897484660148621e-01</leafValues></_>
        <_>
          <internalNodes>
            0 -1 102 -796893712 -34338892 -543424513 -537117196
            -622133252 -4211714 -81923 -1131921480</internalNodes>
          <leafValues>
            -4.7305434942245483e-01 4.0558326244354248e-01</leafValues></_>
        <_>
          <internalNodes>
            0 -1 54 -269489494 -743444754 -1979307486 2062548991
            -842008658 1250935026 -177210418 -1048609</internalNodes>
          <leafValues>
            -4.7703477740287781e-01 3.7190058827400208e-01</leafValues></_>
        <_>
          <internalNodes>
            0 -1 87 -907022609 -1058347012 -859845698 -924083207
            1903523173 1148441876 -1574921 -738723849</internalNodes>
          <leafValues>
            -5.1157957315444946e-01 3.3773580193519592e-01</leafValues></_>
        <_>
          <internalNodes>
            0 -1 76 -2147286485 -201859093 -67643425 -69222409 -1048577
            -5260405 -270337 -904165701</internalNodes>
          <leafValues>
            -4.1634637117385864e-01 4.1992470622062683e-01</leafValues></_>
        <_>
          <internalNodes>
            0 -1 2 -112897 -539014433 -302461185 -272740609 -50694657
            -4098 -6758433 -809842729</internalNodes>
          <leafValues>
            -3.1476002931594849e-01 5.3798598051071167e-01</leafValues></_>
        <_>
          <internalNodes>
            0 -1 106 838857727 858799103 2147221503 1006354333
            2079850495 987768541 2075782141 821951485</internalNodes>
          <leafValues>
            -3.9083170890808105e-01 3.9781469106674194e-01</leafValues></_>
        <_>
          <internalNodes>
            0 -1 89 -37272124 -170130449 -26880180 -571714358 -1703945
            -50332425 -38338628 -8782017</internalNodes>
          <leafValues>
            -3.9951625466346741e-01 4.0536606311798096e-01</leafValues></_></weakClassifiers></_>
    <!-- stage 11 -->
    <_>
      <maxWeakCount>12</maxWeakCount>
      <stageThreshold>-1.1635482311248779e+00</stageThreshold>
      <weakClassifiers>
        <_>
          <internalNodes>
            0 -1 44 -1413774045 -4210921 -268435533 -4177 126813623
            -1346392145 127616375 119473447</internalNodes>
          <leafValues>
            -5.3126670420169830e-02 8.0653375387191772e-01</leafValues></_>
        <_>
          <internalNodes>
            0 -1 55 -209717265 14657003 -12320929 -251658241 -2105345
            16768499 -1573377 -251658241</internalNodes>
          <leafValues>
            -3.8099870085716248e-01 5.6137949228286743e-01</leafValues></_>
        <_>
          <internalNodes>
            0 -1 21 1060870363 -1623993613 817828595 1895281407
            -1170749218 -1094722321 331330295 -1</internalNodes>
          <leafValues>
            -3.7739560008049011e-01 5.6289809942245483e-01</leafValues></_>
        <_>
          <internalNodes>
            0 -1 36 -122751712 -404032457 -4459017 -4196417 -432343051
            1207416231 2008536563 -4194305</internalNodes>
          <leafValues>
            -4.1550374031066895e-01 4.8773628473281860e-01</leafValues></_>
        <_>
          <internalNodes>
            0 -1 3 -269529857 -67418625 -842871297 1292520407 -84750593
            -298753 1335545855 -835006721</internalNodes>
          <leafValues>
            -3.6210805177688599e-01 5.0198936462402344e-01</leafValues></_>
        <_>
          <internalNodes>
            0 -1 93 -1 -1086784003 2147319807 2147433467 1035752957
            1035501053 1039745021 -5</internalNodes>
          <leafValues>
            -3.6461189389228821e-01 4.8844161629676819e-01</leafValues></_>
        <_>
          <internalNodes>
            0 -1 17 -1979545438 -336901 -1242038273 -1574944 -1426675713
            -4456483 -1297687045 -89927455</internalNodes>
          <leafValues>
            -4.4756445288658142e-01 3.6138448119163513e-01</leafValues></_>
        <_>
          <internalNodes>
            0 -1 81 -1338812109 -18719305 -138813441 -34464555
            -1148519429 -262209 -1097662465 -1129161261</internalNodes>
          <leafValues>
            -3.6903682351112366e-01 4.3664169311523438e-01</leafValues></_>
        <_>
          <internalNodes>
            0 -1 96 462429368 1064875261 -1615143107 -546991783
            495458488 -21325640 -1079312392 -4465199</internalNodes>
          <leafValues>
            -5.0485295057296753e-01 2.9940634965896606e-01</leafValues></_>
        <_>
          <internalNodes>
            0 -1 58 -500464125 -525049 -17963113 -343940219 -893650965
            -2640 -118001685 -496507898</internalNodes>
          <leafValues>
            -3.6974707245826721e-01 4.2399272322654724e-01</leafValues></_>
        <_>
          <internalNodes>
            0 -1 103 -246988029 -67674145 -34078765 -32769 -63439289
            -134480001 -147499263 1668477699</internalNodes>
          <leafValues>
            -4.1119405627250671e-01 3.6321580410003662e-01</leafValues></_>
        <_>
          <internalNodes>
            0 -1 61 1544556024 357572092 -1613583301 2147359229
            1026067949 480288767 -24477697 1068129757</internalNodes>
          <leafValues>
            -6.1294436454772949e-01 2.2854205965995789e-01</leafValues></_></weakClassifiers></_>
    <!-- stage 12 -->
    <_>
      <maxWeakCount>11</maxWeakCount>
      <stageThreshold>-9.3745970726013184e-01</stageThreshold>
      <weakClassifiers>
        <_>
          <internalNodes>
            0 -1 51 77793288 235605516 210894856 783944844 -1912665937
            532647853 -1648686918 -8195</internalNodes>
          <leafValues>
            -1.9381085038185120e-01 7.9563128948211670e-01</leafValues></_>
        <_>
          <internalNodes>
            0 -1 0 -1903498582 -285285680 -1094778881 -537199920
            -1345324033 -11523 -1345528835 -805321259</internalNodes>
          <leafValues>
            -4.1458466649055481e-01 5.5547529458999634e-01</leafValues></_>
        <_>
          <internalNodes>
            0 -1 78 523246064 489750525 -2130979 2139092445 204479672
            -4670468 -1081458689 -8707</internalNodes>
          <leafValues>
            -4.9024006724357605e-01 4.2978322505950928e-01</leafValues></_>
        <_>
          <internalNodes>
            0 -1 33 -1140851717 735967731 -1220804641 368833919
            973021435 738193663 557579775 1006632959</internalNodes>
          <leafValues>
            -5.1220273971557617e-01 3.7181109189987183e-01</leafValues></_>
        <_>
          <internalNodes>
            0 -1 74 -10485829 -1079370312 2138945849 -1074651852
            -4465410 -1356201540 -34078725 -8195</internalNodes>
          <leafValues>
            -3.8011083006858826e-01 4.9765262007713318e-01</leafValues></_>
        <_>
          <internalNodes>
            0 -1 20 -1087173189 -1084291329 -1154241537 -1082172449
            -1189992518 -1081136725 -1107152897 -1103483137</internalNodes>
          <leafValues>
            -3.7882149219512939e-01 4.5303574204444885e-01</leafValues></_>
        <_>
          <internalNodes>
            0 -1 108 438039099 859896536 1069544437 286649663 527103994
            992773049 1325251289 1057877999</internalNodes>
          <leafValues>
            -4.6334135532379150e-01 3.4349796175956726e-01</leafValues></_>
        <_>
          <internalNodes>
            0 -1 92 -612379853 -67185677 -671088641 -43329537 -349247601
            -268437569 -208144521 -1070337742</internalNodes>
          <leafValues>
            -3.1365653872489929e-01 5.0941121578216553e-01</leafValues></_>
        <_>
          <internalNodes>
            0 -1 5 -337687333 523114483 -1427444005 -1912462518
            -659930177 -1059841 -1531303941 1789058559</internalNodes>
          <leafValues>
            -3.8837778568267822e-01 3.8202324509620667e-01</leafValues></_>
        <_>
          <internalNodes>
            0 -1 32 721626624 -69261422 -12331019 -2624843 -1276133389
            -68453853 -722471949 -739293776</internalNodes>
          <leafValues>
            -4.5367684960365295e-01 3.2605159282684326e-01</leafValues></_>
        <_>
          <internalNodes>
            0 -1 83 -82577682 -270811684 -17829174 -69224456 -165161659
            -216558347 -221788169 -526859</internalNodes>
          <leafValues>
            -4.1429603099822998e-01 3.3564418554306030e-01</leafValues></_></weakClassifiers></_></stages>
  <features>
    <_>
      <rect>
        0 0 6 1</rect></_>
    <_>
      <rect>
        0 0 7 1</rect></_>
    <_>
      <rect>
        0 9 4 1</rect></_>
    <_>
      <rect>
        0 9 5 1</rect></_>
    <_>
      <rect>
        0 9 6 1</rect></_>
    <_>
      <rect>
        0 10 3 1</rect></_>
    <_>
      <rect>
        0 10 6 1</rect></_>
    <_>
      <rect>
        1 1 3 3</rect></_>
    <_>
      <rect>
        1 3 2 2</rect></_>
    <_>
      <rect>
        1 3 2 3</rect></_>
    <_>
      <rect>
        1 3 3 2</rect></_>
    <_>
      <rect>
        1 4 2 3</rect></_>
    <_>
      <rect>
        2 1 2 2</rect></_>
    <_>
      <rect>
        2 2 3 3</rect></_>
    <_>
      <rect>
        3 0 12 3</rect></_>
    <_>
      <rect>
        3 1 2 1</rect></_>
    <_>
      <rect>
        3 5 2 1</rect></_>
    <_>
      <rect>
        4 0 2 1</rect></_>
    <_>
      <rect>
        5 10 6 1</rect></_>
    <_>
      <rect>
        6 0 7 1</rect></_>
    <_>
      <rect>
        6 9 4 1</rect></_>
    <_>
      <rect>
        6 9 15 1</rect></_>
    <_>
      <rect>
        7 0 2 1</rect></_>
    <_>
      <rect>
        8 1 3 1</rect></_>
    <_>
      <rect>
        8 10 5 1</rect></_>
    <_>
      <rect>
        9 0 10 2</rect></_>
    <_>
      <rect>
        9 2 2 3</rect></_>
    <_>
      <rect>
        9 10 6 1</rect></_>
    <_>
      <rect>
        10 0 5 1</rect></_>
    <_>
      <rect>
        10 4 1 1</rect></_>
    <_>
      <rect>
        10 9 6 1</rect></_>
    <_>
      <rect>
        12 0 2 1</rect></_>
    <_>
      <rect>
        12 1 1 1</rect></_>
    <_>
      <rect>
        12 2 8 1</rect></_>
    <_>
      <rect>
        13 0 7 1</rect></_>
    <_>
      <rect>
        14 1 3 1</rect></_>
    <_>
      <rect>
        14 3 1 1</rect></_>
    <_>
      <rect>
        14 10 6 1</rect></_>
    <_>
      <rect>
        15 2 2 2</rect></_>
    <_>
      <rect>
        15 3 2 3</rect></_>
    <_>
      <rect>
        16 0 4 1</rect></_>
    <_>
      <rect>
        16 5 1 1</rect></_>
    <_>
      <rect>
        18 9 4 1</rect></_>
    <_>
      <rect>
        18 10 5 1</rect></_>
    <_>
      <rect>
        19 2 1 1</rect></_>
    <_>
      <rect>
        19 2 3 1</rect></_>
    <_>
      <rect>
        19 3 10 3</rect></_>
    <_>
      <rect>
        19 7 10 2</rect></_>
    <_>
      <rect>
        19 8 3 1</rect></_>
    <_>
      <rect>
        19 9 5 1</rect></_>
    <_>
      <rect>
        19 10 5 1</rect></_>
    <_>
      <rect>
        20 6 8 2</rect></_>
    <_>
      <rect>
        21 0 1 2</rect></_>
    <_>
      <rect>
        21 0 4 1</rect></_>
    <_>
      <rect>
        21 4 2 2</rect></_>
    <_>
      <rect>
        21 4 4 1</rect></_>
    <_>
      <rect>
        21 6 2 2</rect></_>
    <_>
      <rect>
        22 0 1 2</rect></_>
    <_>
      <rect>
        22 1 1 2</rect></_>
    <_>
      <rect>
        22 1 3 1</rect></_>
    <_>
      <rect>
        22 4 1 1</rect></_>
    <_>
      <rect>
        22 9 3 1</rect></_>
    <_>
      <rect>
        23 4 2 1</rect></_>
    <_>
      <rect>
        25 1 7 1</rect></_>
    <_>
      <rect>
        25 3 4 2</rect></_>
    <_>
      <rect>
        25 4 1 1</rect></_>
    <_>
      <rect>
        25 5 4 2</rect></_>
    <_>
      <rect>
        25 6 2 1</rect></_>
    <_>
      <rect>
        25 10 6 1</rect></_>
    <_>
      <rect>
        26 0 3 3</rect></_>
    <_>
      <rect>
        26 0 3 4</rect></_>
    <_>
      <rect>
        26 4 3 2</rect></_>
    <_>
      <rect>
        26 4 3 3</rect></_>
    <_>
      <rect>
        26 5 3 2</rect></_>
    <_>
      <rect>
        26 7 2 2</rect></_>
    <_>
      <rect>
        26 7 3 2</rect></_>
    <_>
      <rect>
        27 0 1 2</rect></_>
    <_>
      <rect>
        27 2 3 3</rect></_>
    <_>
      <rect>
        27 9 4 1</rect></_>
    <_>
      <rect>
        28 10 5 1</rect></_>
    <_>
      <rect>
        29 0 2 3</rect></_>
    <_>
      <rect>
        29 0 3 1</rect></_>
    <_>
      <rect>
        29 0 6 1</rect></_>
    <_>
      <rect>
        29 7 5 1</rect></_>
    <_>
      <rect>
        29 9 3 1</rect></_>
    <_>
      <rect>
        30 1 3 1</rect></_>
    <_>
      <rect>
        30 7 2 2</rect></_>
    <_>
      <rect>
        30 7 3 1</rect></_>
    <_>
      <rect>
        30 7 3 2</rect></_>
    <_>
      <rect>
        31 3 4 1</rect></_>
    <_>
      <rect>
        31 10 5 1</rect></_>
    <_>
      <rect>
        32 0 5 1</rect></_>
    <_>
      <rect>
        32 1 1 2</rect></_>
    <_>
      <rect>
        32 7 1 2</rect></_>
    <_>
      <rect>
        32 10 6 1</rect></_>
    <_>
      <rect>
        33 7 1 1</rect></_>
    <_>
      <rect>
        34 10 5 1</rect></_>
    <_>
      <rect>
        35 7 2 2</rect></_>
    <_>
      <rect>
        36 9 3 1</rect></_>
    <_>
      <rect>
        36 10 5 1</rect></_>
    <_>
      <rect>
        37 0 1 3</rect></_>
    <_>
      <rect>
        37 4 1 2</rect></_>
    <_>
      <rect>
        38 0 4 1</rect></_>
    <_>
      <rect>
        38 1 1 2</rect></_>
    <_>
      <rect>
        38 4 1 1</rect></_>
    <_>
      <rect>
        38 10 3 1</rect></_>
    <_>
      <rect>
        42 1 3 4</rect></_>
    <_>
      <rect>
        43 1 1 3</rect></_>
    <_>
      <rect>
        43 1 3 4</rect></_>
    <_>
      <rect>
        43 4 1 2</rect></_>
    <_>
      <rect>
        43 5 1 1</rect></_>
    <_>
      <rect>
        43 6 1 1</rect></_>
    <_>
      <rect>
        49 2 1 3</rect></_>
    <_>
      <rect>
        49 4 1 2</rect></_>
    <_>
      <rect>
        49 7 1 2</rect></_></features></cascade>
</opencv_storage>
