<?xml version="1.0"?>
<opencv_storage>
<cascade>
  <stageType>BOOST</stageType>
  <featureType>LBP</featureType>
  <height>13</height>
  <width>52</width>
  <stageParams>
    <boostType>GAB</boostType>
    <minHitRate>9.9500000476837158e-01</minHitRate>
    <maxFalseAlarm>4.4999998807907104e-01</maxFalseAlarm>
    <weightTrimRate>9.4999999999999996e-01</weightTrimRate>
    <maxDepth>1</maxDepth>
    <maxWeakCount>100</maxWeakCount></stageParams>
  <featureParams>
    <maxCatCount>256</maxCatCount>
    <featSize>1</featSize></featureParams>
  <stageNum>13</stageNum>
  <stages>
    <!-- stage 0 -->
    <_>
      <maxWeakCount>5</maxWeakCount>
      <stageThreshold>-1.1386915445327759e+00</stageThreshold>
      <weakClassifiers>
        <_>
          <internalNodes>
            0 -1 67 -20562 -2 2147025832 -2232402 -1 -132197 -1025 -1</internalNodes>
          <leafValues>
            -7.7994370460510254e-01 7.0910710096359253e-01</leafValues></_>
        <_>
          <internalNodes>
            0 -1 78 472914008 -2686979 -499713 -131075 -1937225544
            -21432070 -1080492034 -4534792</internalNodes>
          <leafValues>
            -7.1844428777694702e-01 6.0801845788955688e-01</leafValues></_>
        <_>
          <internalNodes>
            0 -1 22 8061051 2004816341 -1074036865 2145325567 15357951
            -319489 1056636927 985316351</internalNodes>
          <leafValues>
            -7.0203155279159546e-01 5.6856834888458252e-01</leafValues></_>
        <_>
          <internalNodes>
            0 -1 0 645923362 -56818 -1239220225 -11868474 -1079313921
            -290562 -1410077698 -1061395</internalNodes>
          <leafValues>
            -6.3882249593734741e-01 5.2138292789459229e-01</leafValues></_>
        <_>
          <internalNodes>
            0 -1 30 488119412 -42117891 2143034877 -35774979 -1079222788
            -360964 -1079967746 -29876692</internalNodes>
          <leafValues>
            -5.6931769847869873e-01 5.4034501314163208e-01</leafValues></_></weakClassifiers></_>
    <!-- stage 1 -->
    <_>
      <maxWeakCount>6</maxWeakCount>
      <stageThreshold>-1.2793741226196289e+00</stageThreshold>
      <weakClassifiers>
        <_>
          <internalNodes>
            0 -1 62 1374654126 -1 -101974098 -18 -1025 -67109457 -1 -1</internalNodes>
          <leafValues>
            -7.4865227937698364e-01 6.2651509046554565e-01</leafValues></_>
        <_>
          <internalNodes>
            0 -1 6 -285283585 12119023 -1430590737 -1463881729
            1543329791 285016059 -1 -1</internalNodes>
          <leafValues>
            -5.9923517704010010e-01 6.2290638685226440e-01</leafValues></_>
        <_>
          <internalNodes>
            0 -1 26 967841109 -8430721 -549945345 2138660221 -1076594885
            -34177 -1104479233 -13968903</internalNodes>
          <leafValues>
            -5.1055443286895752e-01 6.5337574481964111e-01</leafValues></_>
        <_>
          <internalNodes>
            0 -1 60 523376664 -4235307 1065295871 -32803 -834987816
            -1092989794 534716415 -1031</internalNodes>
          <leafValues>
            -5.1873570680618286e-01 6.1127376556396484e-01</leafValues></_>
        <_>
          <internalNodes>
            0 -1 34 -135811158 487456686 774646280 1912471482 -269615142
            1174271962 -137384050 -67108865</internalNodes>
          <leafValues>
            -5.4161298274993896e-01 5.1684743165969849e-01</leafValues></_>
        <_>
          <internalNodes>
            0 -1 21 1026562165 2013221297 402607999 2132374909 -59745028
            -107400 -23937025 -99951367</internalNodes>
          <leafValues>
            -4.7147518396377563e-01 5.8095604181289673e-01</leafValues></_></weakClassifiers></_>
    <!-- stage 2 -->
    <_>
      <maxWeakCount>6</maxWeakCount>
      <stageThreshold>-1.3628387451171875e+00</stageThreshold>
      <weakClassifiers>
        <_>
          <internalNodes>
            0 -1 74 -1 -67585 -67780641 -1057 1565883901 492065109
            2147352573 -41475</internalNodes>
          <leafValues>
            -6.4652031660079956e-01 6.2572556734085083e-01</leafValues></_>
        <_>
          <internalNodes>
            0 -1 8 -20818 -1073807505 -1356035926 -1342525458 -3
            -71440385 -1090 -1</internalNodes>
          <leafValues>
            -5.9313607215881348e-01 5.6493300199508667e-01</leafValues></_>
        <_>
          <internalNodes>
            0 -1 25 -1309584907 -35329 -32769 -36353 -1308770305 -3
            -1114243073 -1145356289</internalNodes>
          <leafValues>
            -4.5751315355300903e-01 6.8354463577270508e-01</leafValues></_>
        <_>
          <internalNodes>
            0 -1 91 498599984 -1663263235 -304313284 -131075 -1342321155
            -33690498 -2555906 -28771</internalNodes>
          <leafValues>
            -6.3518446683883667e-01 4.6448001265525818e-01</leafValues></_>
        <_>
          <internalNodes>
            0 -1 46 416877578 -35714117 227216398 -7467222 -125990770
            -17985 -1649411365 -17</internalNodes>
          <leafValues>
            -6.7443811893463135e-01 3.7596353888511658e-01</leafValues></_>
        <_>
          <internalNodes>
            0 -1 96 -336600574 177205198 54262528 459800559 -181405935
            216528815 -676343024 -134217729</internalNodes>
          <leafValues>
            -4.8940140008926392e-01 5.4428887367248535e-01</leafValues></_></weakClassifiers></_>
    <!-- stage 3 -->
    <_>
      <maxWeakCount>7</maxWeakCount>
      <stageThreshold>-1.6955742835998535e+00</stageThreshold>
      <weakClassifiers>
        <_>
          <internalNodes>
            0 -1 65 -420501618 -81 -109576209 -545873 -1 -67109377 -17
            -20561</internalNodes>
          <leafValues>
            -6.9832658767700195e-01 5.4653835296630859e-01</leafValues></_>
        <_>
          <internalNodes>
            0 -1 2 -403705937 716173231 -177 -1342181393 -1048577
            183975935 -1 -1</internalNodes>
          <leafValues>
            -5.3493303060531616e-01 5.9694808721542358e-01</leafValues></_>
        <_>
          <internalNodes>
            0 -1 53 -1037590014 -537921749 -353374458 -303043633
            -940593237 -19930145 -370151798 -487595350</internalNodes>
          <leafValues>
            -5.1253223419189453e-01 5.5437022447586060e-01</leafValues></_>
        <_>
          <internalNodes>
            0 -1 42 1060117757 -4432163 -13238273 1601723997 -1413825798
            -65794 -1347764225 -32842243</internalNodes>
          <leafValues>
            -4.9081587791442871e-01 5.8043783903121948e-01</leafValues></_>
        <_>
          <internalNodes>
            0 -1 90 -517496062 -286262273 -431201792 -269490518
            -36723968 64954173 -412126688 -135273557</internalNodes>
          <leafValues>
            -5.1222932338714600e-01 4.9746975302696228e-01</leafValues></_>
        <_>
          <internalNodes>
            0 -1 27 285413403 2147294211 2102811647 2133860153 142614523
            -17110529 -330629137 975841834</internalNodes>
          <leafValues>
            -5.1019519567489624e-01 4.9565452337265015e-01</leafValues></_>
        <_>
          <internalNodes>
            0 -1 94 -1024482814 -521670933 -391297534 -2116048697
            -134219980 -943858949 -142084592 -438304849</internalNodes>
          <leafValues>
            -5.1314359903335571e-01 4.7819718718528748e-01</leafValues></_></weakClassifiers></_>
    <!-- stage 4 -->
    <_>
      <maxWeakCount>8</maxWeakCount>
      <stageThreshold>-1.3916331529617310e+00</stageThreshold>
      <weakClassifiers>
        <_>
          <internalNodes>
            0 -1 76 -213649661 -2097177 -133 -2057 -268435613 -70256657
            -538968201 -134219981</internalNodes>
          <leafValues>
            -5.6315147876739502e-01 6.8250197172164917e-01</leafValues></_>
        <_>
          <internalNodes>
            0 -1 23 -3167318 -90226 193724424 -1075925046 -1196148
            2145136538 -3172980 -1041</internalNodes>
          <leafValues>
            -5.6060415506362915e-01 5.5490869283676147e-01</leafValues></_>
        <_>
          <internalNodes>
            0 -1 33 -951073146 -732965233 35328 -681582643 -144965665
            1606407903 1325785051 -33</internalNodes>
          <leafValues>
            -5.4277634620666504e-01 5.1282733678817749e-01</leafValues></_>
        <_>
          <internalNodes>
            0 -1 19 1026577492 2146262750 1465507327 2136300893
            -1074757635 -50950 -1130562052 -15147524</internalNodes>
          <leafValues>
            -5.9896713495254517e-01 4.5200517773628235e-01</leafValues></_>
        <_>
          <internalNodes>
            0 -1 69 -67175426 -1283411322 285220332 -1074220108
            819244026 1009308568 857225660 -1114113</internalNodes>
          <leafValues>
            -5.3207242488861084e-01 4.6964207291603088e-01</leafValues></_>
        <_>
          <internalNodes>
            0 -1 58 -1313022 -136380417 -733882880 -537190529 -146279866
            927203267 -280497161 -134742017</internalNodes>
          <leafValues>
            -5.1009500026702881e-01 4.4612312316894531e-01</leafValues></_>
        <_>
          <internalNodes>
            0 -1 15 523240504 1574899868 -860619651 1582192988 516692220
            -536961816 2123955711 -569849348</internalNodes>
          <leafValues>
            -6.0430395603179932e-01 3.8338914513587952e-01</leafValues></_>
        <_>
          <internalNodes>
            0 -1 37 -18617174 -1064386424 -903092728 -1073217654
            -1410407010 111905435 1734335106 -201327121</internalNodes>
          <leafValues>
            -4.7454634308815002e-01 4.9347269535064697e-01</leafValues></_></weakClassifiers></_>
    <!-- stage 5 -->
    <_>
      <maxWeakCount>9</maxWeakCount>
      <stageThreshold>-1.8176877498626709e+00</stageThreshold>
      <weakClassifiers>
        <_>
          <internalNodes>
            0 -1 13 -204080145 -1 1928327167 -134217729 2004615167
            -16385 871890943 2004353023</internalNodes>
          <leafValues>
            -5.6313383579254150e-01 5.9236139059066772e-01</leafValues></_>
        <_>
          <internalNodes>
            0 -1 54 -1328524835 -168332801 -171999233 -167804929
            -1263468545 -263185 -1248002049 900366030</internalNodes>
          <leafValues>
            -6.6171431541442871e-01 4.1237765550613403e-01</leafValues></_>
        <_>
          <internalNodes>
            0 -1 68 -16386 2138947518 2142776762 -67256324 -20481
            -1204225 -33751042 -1</internalNodes>
          <leafValues>
            -5.6730729341506958e-01 4.6357002854347229e-01</leafValues></_>
        <_>
          <internalNodes>
            0 -1 77 934288636 -331267 498614268 -587 -84082689 -70147
            497613819 -4563011</internalNodes>
          <leafValues>
            -5.8124327659606934e-01 4.1586533188819885e-01</leafValues></_>
        <_>
          <internalNodes>
            0 -1 55 -292688254 -491861406 1812382208 -523836849
            -120655166 46888159 -454040570 -201326853</internalNodes>
          <leafValues>
            -5.1258260011672974e-01 4.8232248425483704e-01</leafValues></_>
        <_>
          <internalNodes>
            0 -1 35 -1339009795 -167954119 -5081093 2132496441 513769203
            -4423877 -1149707073 -1103475525</internalNodes>
          <leafValues>
            -4.5935365557670593e-01 4.9995559453964233e-01</leafValues></_>
        <_>
          <internalNodes>
            0 -1 48 -21574 500184038 527696696 970239946 1004847096
            480001886 2147213306 -2097153</internalNodes>
          <leafValues>
            -4.6446850895881653e-01 4.4469085335731506e-01</leafValues></_>
        <_>
          <internalNodes>
            0 -1 7 -1561350418 -1608348050 -286332242 -1396527378
            -1879182097 2012952575 -25466113 -805306369</internalNodes>
          <leafValues>
            -6.2654316425323486e-01 3.2985365390777588e-01</leafValues></_>
        <_>
          <internalNodes>
            0 -1 31 758646876 1073552248 1609620479 1597928797
            -1372956950 -4564291 109617151 -668316751</internalNodes>
          <leafValues>
            -6.0583341121673584e-01 3.1265604496002197e-01</leafValues></_></weakClassifiers></_>
    <!-- stage 6 -->
    <_>
      <maxWeakCount>8</maxWeakCount>
      <stageThreshold>-1.5028743743896484e+00</stageThreshold>
      <weakClassifiers>
        <_>
          <internalNodes>
            0 -1 32 -259341176 -14930 -2 -2109042 -85196818 -262426
            -1052690 -1057110</internalNodes>
          <leafValues>
            -6.5644025802612305e-01 4.9354806542396545e-01</leafValues></_>
        <_>
          <internalNodes>
            0 -1 72 -327681 1027407871 -4325377 -65537 1571839484
            1572404733 -1145372673 -263169</internalNodes>
          <leafValues>
            -4.8772740364074707e-01 5.8455950021743774e-01</leafValues></_>
        <_>
          <internalNodes>
            0 -1 89 -963665406 -136318045 -833631488 -142608402
            -202378493 2004841066 -201853182 -137365726</internalNodes>
          <leafValues>
            -5.2113479375839233e-01 4.7553831338882446e-01</leafValues></_>
        <_>
          <internalNodes>
            0 -1 16 -1114614576 -4499979 -557089 1602051481 -1534788100
            -659567 -1079198721 -1087858212</internalNodes>
          <leafValues>
            -5.2469259500503540e-01 4.2619460821151733e-01</leafValues></_>
        <_>
          <internalNodes>
            0 -1 97 -135533310 -1047532881 -210243072 -472916147
            -1829290672 222820175 -134220032 -134217793</internalNodes>
          <leafValues>
            -4.6162545680999756e-01 4.8067185282707214e-01</leafValues></_>
        <_>
          <internalNodes>
            0 -1 57 1090507263 1905754015 -543170593 -135266417
            1911554047 2059402958 -4466705 1925184255</internalNodes>
          <leafValues>
            -5.6928211450576782e-01 3.7542891502380371e-01</leafValues></_>
        <_>
          <internalNodes>
            0 -1 88 481837272 1606402045 -6379076 -1688099 363337880
            -1881498708 -1075921942 -1145288564</internalNodes>
          <leafValues>
            -6.3664215803146362e-01 3.3871009945869446e-01</leafValues></_>
        <_>
          <internalNodes>
            0 -1 24 1601182837 -195083 -2883587 -33731 1610382332
            -336900 -606209 -23151220</internalNodes>
          <leafValues>
            -4.9328714609146118e-01 4.3460720777511597e-01</leafValues></_></weakClassifiers></_>
    <!-- stage 7 -->
    <_>
      <maxWeakCount>8</maxWeakCount>
      <stageThreshold>-1.4429085254669189e+00</stageThreshold>
      <weakClassifiers>
        <_>
          <internalNodes>
            0 -1 10 -273682514 -319820114 -4231506 -235936050 -1 -1029
            -263169 -2049</internalNodes>
          <leafValues>
            -6.2164580821990967e-01 5.1007217168807983e-01</leafValues></_>
        <_>
          <internalNodes>
            0 -1 59 -536873985 1356857331 -218136577 -788529157
            -135272465 1080030941 -263169 -83886081</internalNodes>
          <leafValues>
            -4.6373072266578674e-01 5.7704323530197144e-01</leafValues></_>
        <_>
          <internalNodes>
            0 -1 87 -3620946 -1714635100 -741855688 -1245300 -605224964
            1011416794 -1266692 -2</internalNodes>
          <leafValues>
            -5.0414586067199707e-01 4.8440915346145630e-01</leafValues></_>
        <_>
          <internalNodes>
            0 -1 29 1405952763 1006579960 419741695 970948795
            -1299045638 -1073794305 44216319 721153983</internalNodes>
          <leafValues>
            -5.6506437063217163e-01 4.3844601511955261e-01</leafValues></_>
        <_>
          <internalNodes>
            0 -1 51 -796737374 -10290 -1275649886 -168822614 478674938
            -71445505 -1276648774 -68435734</internalNodes>
          <leafValues>
            -5.0540727376937866e-01 4.5292195677757263e-01</leafValues></_>
        <_>
          <internalNodes>
            0 -1 40 490214616 496328189 442391295 2139061749 -1644684102
            535991033 1580924671 -1086665475</internalNodes>
          <leafValues>
            -5.9660989046096802e-01 3.3596608042716980e-01</leafValues></_>
        <_>
          <internalNodes>
            0 -1 95 -944769278 -856686673 -386995200 -823138385
            -135284927 1122368219 -134219964 -940572721</internalNodes>
          <leafValues>
            -4.7811713814735413e-01 4.5159563422203064e-01</leafValues></_>
        <_>
          <internalNodes>
            0 -1 79 -1028930557 -492570781 -36971289 1635171227
            -143666379 54425195 1467995943 1140848563</internalNodes>
          <leafValues>
            -4.9727293848991394e-01 4.0090724825859070e-01</leafValues></_></weakClassifiers></_>
    <!-- stage 8 -->
    <_>
      <maxWeakCount>7</maxWeakCount>
      <stageThreshold>-1.8087664842605591e+00</stageThreshold>
      <weakClassifiers>
        <_>
          <internalNodes>
            0 -1 43 -723757835 -33597953 -4202497 -43521 -184745985
            -1025 -320274433 -1460767250</internalNodes>
          <leafValues>
            -5.9683024883270264e-01 5.1835829019546509e-01</leafValues></_>
        <_>
          <internalNodes>
            0 -1 71 -1 -788530177 -537928749 -570425345 2004318071
            1077408631 -8912905 -8915081</internalNodes>
          <leafValues>
            -5.5733937025070190e-01 5.0067025423049927e-01</leafValues></_>
        <_>
          <internalNodes>
            0 -1 75 -48701955 -238115 -32769 -33283 1570012669
            -1078403075 -1073807361 -1078305283</internalNodes>
          <leafValues>
            -4.6901217103004456e-01 5.2047598361968994e-01</leafValues></_>
        <_>
          <internalNodes>
            0 -1 5 -1564040630 -16907722 -17629185 -84015364 -1476511809
            -262657 -1086861313 -1073799699</internalNodes>
          <leafValues>
            -6.2684065103530884e-01 3.6744013428688049e-01</leafValues></_>
        <_>
          <internalNodes>
            0 -1 11 -1069462 515682094 797876266 -1612206418 -537020555
            469660021 -33476 -5</internalNodes>
          <leafValues>
            -5.6538683176040649e-01 3.8626569509506226e-01</leafValues></_>
        <_>
          <internalNodes>
            0 -1 86 1368397276 -35833867 -35790849 -254987 -71401473
            -4390914 -84345092 -1080021196</internalNodes>
          <leafValues>
            -5.4315453767776489e-01 3.7975558638572693e-01</leafValues></_>
        <_>
          <internalNodes>
            0 -1 45 1585334282 -537184758 -1358028018 1058671400
            -177143825 -536905217 -1621102707 -2302241</internalNodes>
          <leafValues>
            -6.2340080738067627e-01 3.3350327610969543e-01</leafValues></_></weakClassifiers></_>
    <!-- stage 9 -->
    <_>
      <maxWeakCount>8</maxWeakCount>
      <stageThreshold>-1.3261872529983521e+00</stageThreshold>
      <weakClassifiers>
        <_>
          <internalNodes>
            0 -1 28 -251834113 -43521 -1 -35329 -33554433 -1 -33554433
            -1191551749</internalNodes>
          <leafValues>
            -5.0438070297241211e-01 6.2892740964889526e-01</leafValues></_>
        <_>
          <internalNodes>
            0 -1 47 -46658388 -114801 -1078325458 -37765234 -4681814
            -7688565 -1096233010 -276131953</internalNodes>
          <leafValues>
            -6.1913931369781494e-01 4.2988714575767517e-01</leafValues></_>
        <_>
          <internalNodes>
            0 -1 82 -286330964 -285676034 -272437252 -623706118
            -403243521 1089665022 -66050 -134808578</internalNodes>
          <leafValues>
            -5.5286157131195068e-01 4.2172631621360779e-01</leafValues></_>
        <_>
          <internalNodes>
            0 -1 4 -271168289 -375305 -1902359041 252726615 -123025160
            -45061 1336594431 1310871231</internalNodes>
          <leafValues>
            -5.3922033309936523e-01 4.2061361670494080e-01</leafValues></_>
        <_>
          <internalNodes>
            0 -1 20 -1391920384 -42533964 -88096854 -6620374 1057143722
            -4195857 -83100758 -5537758</internalNodes>
          <leafValues>
            -5.8433985710144043e-01 3.7295779585838318e-01</leafValues></_>
        <_>
          <internalNodes>
            0 -1 52 -570728961 490266109 1606320127 -41475 -327745
            -90115 -458817 -4522497</internalNodes>
          <leafValues>
            -3.7553593516349792e-01 5.7977306842803955e-01</leafValues></_>
        <_>
          <internalNodes>
            0 -1 92 -955784702 -374343761 -629152000 2146430763
            1873114960 1173716797 -958400703 -134219869</internalNodes>
          <leafValues>
            -4.2784810066223145e-01 4.8638600111007690e-01</leafValues></_>
        <_>
          <internalNodes>
            0 -1 56 814764497 -1208517121 -8552577 -36086277 -1080786946
            -4563233 -1145511937 -1113585174</internalNodes>
          <leafValues>
            -4.9715211987495422e-01 4.0307059884071350e-01</leafValues></_></weakClassifiers></_>
    <!-- stage 10 -->
    <_>
      <maxWeakCount>8</maxWeakCount>
      <stageThreshold>-1.5502749681472778e+00</stageThreshold>
      <weakClassifiers>
        <_>
          <internalNodes>
            0 -1 12 -1431639518 -1122846 -201334793 -1573150 -353379329
            -270913 -352322053 -1048589</internalNodes>
          <leafValues>
            -6.6326272487640381e-01 4.2057153582572937e-01</leafValues></_>
        <_>
          <internalNodes>
            0 -1 49 -1934948214 -1623478385 472909832 -20996929 -26369
            -544228129 -583295745 -1</internalNodes>
          <leafValues>
            -6.0972315073013306e-01 4.3434393405914307e-01</leafValues></_>
        <_>
          <internalNodes>
            0 -1 83 523443485 496440669 1608195071 1575958941 496698845
            253712669 499597823 1610604509</internalNodes>
          <leafValues>
            -5.9993916749954224e-01 4.0003892779350281e-01</leafValues></_>
        <_>
          <internalNodes>
            0 -1 81 -327681 517485564 723460063 1029977816 486022556
            499407257 -41074756 -32771</internalNodes>
          <leafValues>
            -5.3704929351806641e-01 4.2717018723487854e-01</leafValues></_>
        <_>
          <internalNodes>
            0 -1 41 -1087137537 2143289332 1113289471 1884552317
            -890057122 -1429471746 1578820351 -25174531</internalNodes>
          <leafValues>
            -4.2649570107460022e-01 5.1616698503494263e-01</leafValues></_>
        <_>
          <internalNodes>
            0 -1 44 -334847486 -1410347521 -10490893 -540024977
            1681575739 -872493061 -462440649 -2049</internalNodes>
          <leafValues>
            -4.8558929562568665e-01 4.2829856276512146e-01</leafValues></_>
        <_>
          <internalNodes>
            0 -1 63 -17833745 -354418705 -1314196896 -1301545257
            -1076125237 10197419 2012213627 335543039</internalNodes>
          <leafValues>
            -6.0925495624542236e-01 3.3717900514602661e-01</leafValues></_>
        <_>
          <internalNodes>
            0 -1 9 -831648550 -1648406312 -1164037633 1563040793
            241590012 -565482341 -99976710 -31793921</internalNodes>
          <leafValues>
            -4.9116659164428711e-01 3.9430958032608032e-01</leafValues></_></weakClassifiers></_>
    <!-- stage 11 -->
    <_>
      <maxWeakCount>9</maxWeakCount>
      <stageThreshold>-1.3357069492340088e+00</stageThreshold>
      <weakClassifiers>
        <_>
          <internalNodes>
            0 -1 64 -1 -1615265793 1574731770 -1078411271 -536870977
            -1363485697 -578945025 -1073741825</internalNodes>
          <leafValues>
            -4.8745217919349670e-01 5.8604156970977783e-01</leafValues></_>
        <_>
          <internalNodes>
            0 -1 50 230063 -201328129 -207618049 -100665857 -491782145
            -67113249 -84414465 -2102662481</internalNodes>
          <leafValues>
            -5.3978794813156128e-01 4.4263738393783569e-01</leafValues></_>
        <_>
          <internalNodes>
            0 -1 93 -8651000 420019736 -545260000 1058013021 -5242961
            252443533 -1342440792 -1078984711</internalNodes>
          <leafValues>
            -5.4761481285095215e-01 3.9599317312240601e-01</leafValues></_>
        <_>
          <internalNodes>
            0 -1 85 355474940 366004189 2126315391 -8981155 162012600
            -1615139843 2109406207 -1078298151</internalNodes>
          <leafValues>
            -6.5233480930328369e-01 2.9625079035758972e-01</leafValues></_>
        <_>
          <internalNodes>
            0 -1 1 -1494225169 115863278 -1107820545 -269490449
            -156499969 1742690783 -408947205 -1049601</internalNodes>
          <leafValues>
            -4.6978163719177246e-01 4.2924374341964722e-01</leafValues></_>
        <_>
          <internalNodes>
            0 -1 36 -1326426883 -570601475 -23232513 2103270781
            -1327202561 -33621249 945094655 1745420013</internalNodes>
          <leafValues>
            -5.5421704053878784e-01 2.9690515995025635e-01</leafValues></_>
        <_>
          <internalNodes>
            0 -1 73 -286590977 805240831 -404816897 788463615 1290076381
            216618492 1441617406 1442272765</internalNodes>
          <leafValues>
            -5.8511036634445190e-01 3.0722957849502563e-01</leafValues></_>
        <_>
          <internalNodes>
            0 -1 14 1060077343 -1076411100 1158037252 1426523400
            2139058047 1069491807 1594306380 2136934489</internalNodes>
          <leafValues>
            -5.8855903148651123e-01 3.1039497256278992e-01</leafValues></_>
        <_>
          <internalNodes>
            0 -1 84 -572567331 2144431321 -543175171 -168881319
            -574816273 -7537233 -37817924 1915768960</internalNodes>
          <leafValues>
            -4.7694143652915955e-01 3.6326339840888977e-01</leafValues></_></weakClassifiers></_>
    <!-- stage 12 -->
    <_>
      <maxWeakCount>10</maxWeakCount>
      <stageThreshold>-1.3770952224731445e+00</stageThreshold>
      <weakClassifiers>
        <_>
          <internalNodes>
            0 -1 18 -252325643 -2569 -131073 -10753 -453116417 -1
            -453641217 -50333185</internalNodes>
          <leafValues>
            -4.4855967164039612e-01 5.9426867961883545e-01</leafValues></_>
        <_>
          <internalNodes>
            0 -1 38 -1069394 -1347506270 -1377040380 -1886472920
            -1110507587 531295439 -273699091 -285212737</internalNodes>
          <leafValues>
            -4.8987808823585510e-01 4.3708890676498413e-01</leafValues></_>
        <_>
          <internalNodes>
            0 -1 66 -386972449 -47873 -1360024581 -1560328977 -287314177
            -2098477 -354418693 -892416769</internalNodes>
          <leafValues>
            -4.3206164240837097e-01 4.4799688458442688e-01</leafValues></_>
        <_>
          <internalNodes>
            0 -1 3 -289477889 150798335 -98561 -1141182993 1374713343
            2025716735 2147311615 -1025</internalNodes>
          <leafValues>
            -4.1142877936363220e-01 4.3344527482986450e-01</leafValues></_>
        <_>
          <internalNodes>
            0 -1 17 925604058 -4489221 440310515 1347403487 -1139618614
            -1106608385 -1236607005 526368767</internalNodes>
          <leafValues>
            -5.3267335891723633e-01 3.0333286523818970e-01</leafValues></_>
        <_>
          <internalNodes>
            0 -1 61 -220268958 1892607682 -224726330 1358364255
            -216271914 1157097158 -143141145 -218628129</internalNodes>
          <leafValues>
            -5.5579644441604614e-01 3.2003489136695862e-01</leafValues></_>
        <_>
          <internalNodes>
            0 -1 98 -606079744 -1389585527 -648218368 -610535089
            -589303004 18856325 -202115840 -438309395</internalNodes>
          <leafValues>
            -5.0031816959381104e-01 3.5042497515678406e-01</leafValues></_>
        <_>
          <internalNodes>
            0 -1 70 -1163767439 -21858831 -170459137 -2875437
            -1107379201 -9731 -1078804481 -1414365326</internalNodes>
          <leafValues>
            -4.1736793518066406e-01 3.9329653978347778e-01</leafValues></_>
        <_>
          <internalNodes>
            0 -1 80 -263237 -1086670849 -204498951 -1078281282
            1039986045 246952633 1576869756 2139093885</internalNodes>
          <leafValues>
            -4.5223444700241089e-01 3.5708758234977722e-01</leafValues></_>
        <_>
          <internalNodes>
            0 -1 39 489754013 2012700124 498954239 2147421625 995110876
            -7179880 1004699646 2116706303</internalNodes>
          <leafValues>
            -4.6860080957412720e-01 3.4827673435211182e-01</leafValues></_></weakClassifiers></_></stages>
  <features>
    <_>
      <rect>
        0 0 7 1</rect></_>
    <_>
      <rect>
        0 1 3 1</rect></_>
    <_>
      <rect>
        0 1 3 2</rect></_>
    <_>
      <rect>
        0 2 2 3</rect></_>
    <_>
      <rect>
        0 9 5 1</rect></_>
    <_>
      <rect>
        1 0 5 1</rect></_>
    <_>
      <rect>
        1 2 2 3</rect></_>
    <_>
      <rect>
        1 2 4 2</rect></_>
    <_>
      <rect>
        2 1 3 4</rect></_>
    <_>
      <rect>
        2 10 5 1</rect></_>
    <_>
      <rect>
        3 1 2 1</rect></_>
    <_>
      <rect>
        3 4 2 2</rect></_>
    <_>
      <rect>
        4 0 2 1</rect></_>
    <_>
      <rect>
        5 1 3 1</rect></_>
    <_>
      <rect>
        5 2 8 1</rect></_>
    <_>
      <rect>
        5 10 7 1</rect></_>
    <_>
      <rect>
        6 0 5 1</rect></_>
    <_>
      <rect>
        6 9 12 1</rect></_>
    <_>
      <rect>
        7 0 2 1</rect></_>
    <_>
      <rect>
        8 0 6 1</rect></_>
    <_>
      <rect>
        8 1 3 1</rect></_>
    <_>
      <rect>
        8 10 7 1</rect></_>
    <_>
      <rect>
        9 0 10 2</rect></_>
    <_>
      <rect>
        9 3 2 3</rect></_>
    <_>
      <rect>
        10 10 4 1</rect></_>
    <_>
      <rect>
        11 0 3 1</rect></_>
    <_>
      <rect>
        11 0 7 1</rect></_>
    <_>
      <rect>
        11 0 13 2</rect></_>
    <_>
      <rect>
        13 0 2 1</rect></_>
    <_>
      <rect>
        13 2 8 1</rect></_>
    <_>
      <rect>
        14 10 5 1</rect></_>
    <_>
      <rect>
        14 10 7 1</rect></_>
    <_>
      <rect>
        15 1 2 1</rect></_>
    <_>
      <rect>
        15 3 2 1</rect></_>
    <_>
      <rect>
        15 3 2 3</rect></_>
    <_>
      <rect>
        16 0 6 1</rect></_>
    <_>
      <rect>
        16 1 6 1</rect></_>
    <_>
      <rect>
        16 5 1 1</rect></_>
    <_>
      <rect>
        16 5 1 2</rect></_>
    <_>
      <rect>
        16 9 4 1</rect></_>
    <_>
      <rect>
        17 9 6 1</rect></_>
    <_>
      <rect>
        17 10 11 1</rect></_>
    <_>
      <rect>
        18 10 7 1</rect></_>
    <_>
      <rect>
        19 1 2 1</rect></_>
    <_>
      <rect>
        19 3 1 1</rect></_>
    <_>
      <rect>
        19 3 10 2</rect></_>
    <_>
      <rect>
        19 3 10 3</rect></_>
    <_>
      <rect>
        19 8 3 1</rect></_>
    <_>
      <rect>
        20 4 2 3</rect></_>
    <_>
      <rect>
        20 6 8 2</rect></_>
    <_>
      <rect>
        21 0 1 2</rect></_>
    <_>
      <rect>
        21 2 2 1</rect></_>
    <_>
      <rect>
        21 9 4 1</rect></_>
    <_>
      <rect>
        22 1 1 2</rect></_>
    <_>
      <rect>
        22 1 3 1</rect></_>
    <_>
      <rect>
        22 5 1 1</rect></_>
    <_>
      <rect>
        23 0 2 1</rect></_>
    <_>
      <rect>
        23 0 3 3</rect></_>
    <_>
      <rect>
        23 4 2 1</rect></_>
    <_>
      <rect>
        23 6 3 1</rect></_>
    <_>
      <rect>
        23 9 8 1</rect></_>
    <_>
      <rect>
        24 4 2 1</rect></_>
    <_>
      <rect>
        25 2 4 3</rect></_>
    <_>
      <rect>
        25 5 2 1</rect></_>
    <_>
      <rect>
        25 7 2 2</rect></_>
    <_>
      <rect>
        26 0 3 3</rect></_>
    <_>
      <rect>
        26 2 2 1</rect></_>
    <_>
      <rect>
        26 4 3 3</rect></_>
    <_>
      <rect>
        26 7 3 2</rect></_>
    <_>
      <rect>
        27 7 1 2</rect></_>
    <_>
      <rect>
        29 0 3 1</rect></_>
    <_>
      <rect>
        29 7 3 1</rect></_>
    <_>
      <rect>
        29 9 3 1</rect></_>
    <_>
      <rect>
        30 6 3 2</rect></_>
    <_>
      <rect>
        30 7 2 2</rect></_>
    <_>
      <rect>
        30 10 3 1</rect></_>
    <_>
      <rect>
        31 1 1 3</rect></_>
    <_>
      <rect>
        31 10 4 1</rect></_>
    <_>
      <rect>
        31 10 6 1</rect></_>
    <_>
      <rect>
        32 3 1 2</rect></_>
    <_>
      <rect>
        32 6 1 2</rect></_>
    <_>
      <rect>
        32 7 1 2</rect></_>
    <_>
      <rect>
        33 7 1 1</rect></_>
    <_>
      <rect>
        34 9 4 1</rect></_>
    <_>
      <rect>
        35 1 4 1</rect></_>
    <_>
      <rect>
        35 10 3 1</rect></_>
    <_>
      <rect>
        36 0 3 1</rect></_>
    <_>
      <rect>
        36 7 1 2</rect></_>
    <_>
      <rect>
        36 10 4 1</rect></_>
    <_>
      <rect>
        37 3 1 2</rect></_>
    <_>
      <rect>
        37 4 1 2</rect></_>
    <_>
      <rect>
        39 10 3 1</rect></_>
    <_>
      <rect>
        43 4 1 2</rect></_>
    <_>
      <rect>
        46 10 2 1</rect></_>
    <_>
      <rect>
        49 4 1 2</rect></_>
    <_>
      <rect>
        49 5 1 2</rect></_>
    <_>
      <rect>
        49 6 1 2</rect></_>
    <_>
      <rect>
        49 8 1 1</rect></_>
    <_>
      <rect>
        49 9 1 1</rect></_></features></cascade>
</opencv_storage>
