<?xml version="1.0"?>
<opencv_storage>
<cascade>
  <stageType>BOOST</stageType>
  <featureType>LBP</featureType>
  <height>22</height>
  <width>80</width>
  <stageParams>
    <boostType>GAB</boostType>
    <minHitRate>9.9500000476837158e-01</minHitRate>
    <maxFalseAlarm>4.4999998807907104e-01</maxFalseAlarm>
    <weightTrimRate>9.4999999999999996e-01</weightTrimRate>
    <maxDepth>1</maxDepth>
    <maxWeakCount>100</maxWeakCount></stageParams>
  <featureParams>
    <maxCatCount>256</maxCatCount>
    <featSize>1</featSize></featureParams>
  <stageNum>13</stageNum>
  <stages>
    <!-- stage 0 -->
    <_>
      <maxWeakCount>6</maxWeakCount>
      <stageThreshold>-5.8707296848297119e-01</stageThreshold>
      <weakClassifiers>
        <_>
          <internalNodes>
            0 -1 75 1372367498 2012001006 323291658 -538001490
            -176161793 -1124618001 -2098194 -1</internalNodes>
          <leafValues>
            -2.6993274688720703e-01 9.1692829132080078e-01</leafValues></_>
        <_>
          <internalNodes>
            0 -1 62 134224048 -38759216 521149949 -578986531 -2010580230
            -1078394883 170565631 -15016451</internalNodes>
          <leafValues>
            -4.3651872873306274e-01 8.2549035549163818e-01</leafValues></_>
        <_>
          <internalNodes>
            0 -1 13 -319836498 180137870 -282162678 -1427199318 -4097
            -66561 -1 -17</internalNodes>
          <leafValues>
            -5.1825374364852905e-01 6.9350290298461914e-01</leafValues></_>
        <_>
          <internalNodes>
            0 -1 38 420486640 422581596 1071489021 2141000821
            -1115095809 -1078944323 1071300607 -1081434883</internalNodes>
          <leafValues>
            -5.2119350433349609e-01 6.2846797704696655e-01</leafValues></_>
        <_>
          <internalNodes>
            0 -1 21 268439664 -575385515 -15213059 2136817753
            -1347372037 -131073 698146301 -1079273043</internalNodes>
          <leafValues>
            -4.5057150721549988e-01 6.1993813514709473e-01</leafValues></_>
        <_>
          <internalNodes>
            0 -1 89 -8389633 435993596 234527182 771685118 1567970813
            263508 2147309039 2113755133</internalNodes>
          <leafValues>
            -5.1251488924026489e-01 4.5973578095436096e-01</leafValues></_></weakClassifiers></_>
    <!-- stage 1 -->
    <_>
      <maxWeakCount>8</maxWeakCount>
      <stageThreshold>-7.4431526660919189e-01</stageThreshold>
      <weakClassifiers>
        <_>
          <internalNodes>
            0 -1 76 -21846 2113780142 999622792 -1073890642 -67125253
            966638262 -1073758209 -1</internalNodes>
          <leafValues>
            -1.1593652516603470e-01 9.1717392206192017e-01</leafValues></_>
        <_>
          <internalNodes>
            0 -1 33 846934779 838045939 498335743 503264765 139515
            1005519615 33689535 195759023</internalNodes>
          <leafValues>
            -4.8328322172164917e-01 7.4617791175842285e-01</leafValues></_>
        <_>
          <internalNodes>
            0 -1 93 487592176 -1076847376 -1644618243 -188931 429432056
            -466500 -1950834689 -45572</internalNodes>
          <leafValues>
            -5.3744608163833618e-01 6.5359163284301758e-01</leafValues></_>
        <_>
          <internalNodes>
            0 -1 31 4180 -34336259 -1879581217 2103270517 536887295
            -1074278401 195747839 -1655171652</internalNodes>
          <leafValues>
            -5.0921791791915894e-01 5.6783670186996460e-01</leafValues></_>
        <_>
          <internalNodes>
            0 -1 14 -1494224978 78570222 612822570 -592517394 -135792673
            67037167 -269484033 -268439601</internalNodes>
          <leafValues>
            -5.8408612012863159e-01 4.7557881474494934e-01</leafValues></_>
        <_>
          <internalNodes>
            0 -1 27 824188052 535826813 528029181 1606358493 724615165
            -4974340 263749119 -552973059</internalNodes>
          <leafValues>
            -5.1907289028167725e-01 4.7915971279144287e-01</leafValues></_>
        <_>
          <internalNodes>
            0 -1 45 -540559446 298234598 1073775104 1347395980
            1540093831 67503170 -695620726 -167778321</internalNodes>
          <leafValues>
            -4.6393242478370667e-01 4.7340220212936401e-01</leafValues></_>
        <_>
          <internalNodes>
            0 -1 111 -2135979518 -2132889042 -863205376 32485358
            -67119340 8376938 -805378752 -939528273</internalNodes>
          <leafValues>
            -5.2657222747802734e-01 4.0614911913871765e-01</leafValues></_></weakClassifiers></_>
    <!-- stage 2 -->
    <_>
      <maxWeakCount>8</maxWeakCount>
      <stageThreshold>-6.9797450304031372e-01</stageThreshold>
      <weakClassifiers>
        <_>
          <internalNodes>
            0 -1 74 1088881166 2129586094 2078242702 -611410 -1041
            -67118145 -134218773 -67129425</internalNodes>
          <leafValues>
            -1.7584168910980225e-01 8.8224768638610840e-01</leafValues></_>
        <_>
          <internalNodes>
            0 -1 54 -1716518736 -4416003 405801144 -4553475 -1120888646
            -4350722 1057669050 -539256323</internalNodes>
          <leafValues>
            -4.4660320878028870e-01 7.0784777402877808e-01</leafValues></_>
        <_>
          <internalNodes>
            0 -1 1 -2013224286 -216232 -9502721 -7948852 -1347485697
            -1118465 -1345331713 -1079341636</internalNodes>
          <leafValues>
            -5.2819132804870605e-01 5.8700937032699585e-01</leafValues></_>
        <_>
          <internalNodes>
            0 -1 79 -1049846 -747637809 -214960382 -3214402 -319294521
            860294123 -251661370 -2049</internalNodes>
          <leafValues>
            -5.5361020565032959e-01 5.1761019229888916e-01</leafValues></_>
        <_>
          <internalNodes>
            0 -1 23 858790928 2133925245 2111832063 2042433853
            1058029052 -763496 1055416319 -7844455</internalNodes>
          <leafValues>
            -5.6193417310714722e-01 4.8221904039382935e-01</leafValues></_>
        <_>
          <internalNodes>
            0 -1 96 523509245 1978688944 1601501181 1595415956
            -1642004993 -136452 -1158759425 -1433893724</internalNodes>
          <leafValues>
            -4.2819780111312866e-01 5.6075447797775269e-01</leafValues></_>
        <_>
          <internalNodes>
            0 -1 102 -404232414 -478286869 -229727488 -740103174
            1611749120 3417381 2003269408 1970796519</internalNodes>
          <leafValues>
            -5.8349859714508057e-01 3.5592100024223328e-01</leafValues></_>
        <_>
          <internalNodes>
            0 -1 105 536875281 -674218028 1026908159 -35823619
            -1121404427 -460110 -1079706627 -1130300948</internalNodes>
          <leafValues>
            -4.0368556976318359e-01 5.2528214454650879e-01</leafValues></_></weakClassifiers></_>
    <!-- stage 3 -->
    <_>
      <maxWeakCount>8</maxWeakCount>
      <stageThreshold>-1.1959240436553955e+00</stageThreshold>
      <weakClassifiers>
        <_>
          <internalNodes>
            0 -1 12 -353458654 246329006 641863168 15388398 2147430383
            2080374591 -16814209 -285217041</internalNodes>
          <leafValues>
            -2.1742966771125793e-01 8.5939645767211914e-01</leafValues></_>
        <_>
          <internalNodes>
            0 -1 84 -1 1039465983 -16385 -1073807393 1567972861
            493903357 498827263 1577017341</internalNodes>
          <leafValues>
            -4.1195225715637207e-01 7.2114068269729614e-01</leafValues></_>
        <_>
          <internalNodes>
            0 -1 48 326366207 -5121 2080371647 -1281 1382023167
            795864879 861928427 2004874239</internalNodes>
          <leafValues>
            -4.6758040785789490e-01 6.2622433900833130e-01</leafValues></_>
        <_>
          <internalNodes>
            0 -1 39 890310933 -303495 1060405247 2134384497 -1381032321
            -91394 1005198079 -1078322952</internalNodes>
          <leafValues>
            -4.2953675985336304e-01 6.1192834377288818e-01</leafValues></_>
        <_>
          <internalNodes>
            0 -1 6 -1358426914 -4307938 -16118305 -4565706 255610846
            -2339590 -623190017 -22478881</internalNodes>
          <leafValues>
            -4.6909707784652710e-01 5.1169884204864502e-01</leafValues></_>
        <_>
          <internalNodes>
            0 -1 94 -1025514649 -1057762049 -977050681 -1951481426
            1458304871 40597367 -697305241 1408234479</internalNodes>
          <leafValues>
            -4.7775611281394958e-01 4.6876472234725952e-01</leafValues></_>
        <_>
          <internalNodes>
            0 -1 97 -1143825923 2141043068 2109292543 -15507623
            2140969983 -4399396 -1342373889 -56096620</internalNodes>
          <leafValues>
            -3.8022857904434204e-01 5.6654727458953857e-01</leafValues></_>
        <_>
          <internalNodes>
            0 -1 56 1425737738 -6997985 1101991054 -4310742 1811120778
            -7358305 -667251985 -4203638</internalNodes>
          <leafValues>
            -5.1690125465393066e-01 4.1468361020088196e-01</leafValues></_></weakClassifiers></_>
    <!-- stage 4 -->
    <_>
      <maxWeakCount>10</maxWeakCount>
      <stageThreshold>-1.0774517059326172e+00</stageThreshold>
      <weakClassifiers>
        <_>
          <internalNodes>
            0 -1 71 -202379638 1357377262 -492377462 -203232530
            1937768431 1216287263 -262145 1946156031</internalNodes>
          <leafValues>
            -1.5485830605030060e-01 8.6397320032119751e-01</leafValues></_>
        <_>
          <internalNodes>
            0 -1 34 -1275592705 -134742017 -525313 -134742017
            -1073741825 2139053935 -1 2012732919</internalNodes>
          <leafValues>
            -2.8937068581581116e-01 7.8069418668746948e-01</leafValues></_>
        <_>
          <internalNodes>
            0 -1 53 120921949 -181281 -1084456961 2134540155 979974911
            -4691713 -1344627201 -1145430599</internalNodes>
          <leafValues>
            -3.2813167572021484e-01 6.7769962549209595e-01</leafValues></_>
        <_>
          <internalNodes>
            0 -1 88 1876945635 1390340767 -204472594 1123942142
            2004187125 7697269 1937240063 2004318079</internalNodes>
          <leafValues>
            -5.2615463733673096e-01 4.8207873106002808e-01</leafValues></_>
        <_>
          <internalNodes>
            0 -1 58 1034984957 355491837 -1082393601 2147442141 -4448257
            1060170685 -1078395921 2142952957</internalNodes>
          <leafValues>
            -5.1662456989288330e-01 4.4806247949600220e-01</leafValues></_>
        <_>
          <internalNodes>
            0 -1 64 1107804162 1933308775 -469769441 1941959611
            1073999364 -389287045 1917838726 1944055695</internalNodes>
          <leafValues>
            -5.5728787183761597e-01 3.5259085893630981e-01</leafValues></_>
        <_>
          <internalNodes>
            0 -1 2 -285216785 16313983 2147220047 738127526 1810720245
            837575039 -406723589 1861746687</internalNodes>
          <leafValues>
            -4.5597028732299805e-01 4.2400246858596802e-01</leafValues></_>
        <_>
          <internalNodes>
            0 -1 68 -1617815047 -3139108 -36069507 -541574660 -71648326
            -1148354888 -1114571012 -89646712</internalNodes>
          <leafValues>
            -3.9899793267250061e-01 4.9875402450561523e-01</leafValues></_>
        <_>
          <internalNodes>
            0 -1 101 -698886909 -235412641 -306221046 -788513
            -1065401593 1919629141 -1060666362 1970795319</internalNodes>
          <leafValues>
            -3.7968260049819946e-01 4.7770747542381287e-01</leafValues></_>
        <_>
          <internalNodes>
            0 -1 0 673841783 -268941383 -284426273 -35735563 -1347483905
            -4231234 -1930573569 -144700</internalNodes>
          <leafValues>
            -3.5482808947563171e-01 5.1156044006347656e-01</leafValues></_></weakClassifiers></_>
    <!-- stage 5 -->
    <_>
      <maxWeakCount>8</maxWeakCount>
      <stageThreshold>-6.4671015739440918e-01</stageThreshold>
      <weakClassifiers>
        <_>
          <internalNodes>
            0 -1 63 5195215 1358911471 2013233151 1375690623 2013265919
            1895825407 -134217729 1089466335</internalNodes>
          <leafValues>
            -1.1231169104576111e-01 8.5221743583679199e-01</leafValues></_>
        <_>
          <internalNodes>
            0 -1 69 470817904 -8593955 -1078403075 -2236963 985159864
            -1078420248 -1171587074 -4661763</internalNodes>
          <leafValues>
            -4.8185724020004272e-01 6.4762723445892334e-01</leafValues></_>
        <_>
          <internalNodes>
            0 -1 92 -1 -1074200577 2146172927 -65537 2138920444
            493897045 -131075 -40963</internalNodes>
          <leafValues>
            -4.5538070797920227e-01 6.4783108234405518e-01</leafValues></_>
        <_>
          <internalNodes>
            0 -1 10 -420500946 -1349189969 -1993691510 -1343312978
            -16810001 -1114273 -268435473 -273</internalNodes>
          <leafValues>
            -5.8210545778274536e-01 4.8169532418251038e-01</leafValues></_>
        <_>
          <internalNodes>
            0 -1 47 285544575 -671408139 -4727297 -1078174017
            -1143784577 -87831 -1073954817 -1079338840</internalNodes>
          <leafValues>
            -4.2027953267097473e-01 5.5294501781463623e-01</leafValues></_>
        <_>
          <internalNodes>
            0 -1 30 -422608382 -542115025 -1526002806 -269492342
            -536870977 -205528013 -11572242 -5430</internalNodes>
          <leafValues>
            -4.3666195869445801e-01 5.0736349821090698e-01</leafValues></_>
        <_>
          <internalNodes>
            0 -1 3 -489689330 -2098270514 -1429590528 -1462849842
            1986224902 1080187711 -137210624 -150996369</internalNodes>
          <leafValues>
            -4.4907617568969727e-01 4.3662539124488831e-01</leafValues></_>
        <_>
          <internalNodes>
            0 -1 103 -201331158 1122491307 -1387310080 -688399899
            -1048887036 1178809929 -691128830 -152570137</internalNodes>
          <leafValues>
            -4.2841857671737671e-01 4.4073188304901123e-01</leafValues></_></weakClassifiers></_>
    <!-- stage 6 -->
    <_>
      <maxWeakCount>9</maxWeakCount>
      <stageThreshold>-9.5447236299514771e-01</stageThreshold>
      <weakClassifiers>
        <_>
          <internalNodes>
            0 -1 61 1563958716 487593468 1073692671 536812893 -38223874
            204479997 1073658879 1069178365</internalNodes>
          <leafValues>
            -1.8687351047992706e-01 8.4231692552566528e-01</leafValues></_>
        <_>
          <internalNodes>
            0 -1 60 -20568 1073102764 1032849920 -1266776 -24580
            1054609356 -217092 -1</internalNodes>
          <leafValues>
            -4.0883138775825500e-01 6.5390706062316895e-01</leafValues></_>
        <_>
          <internalNodes>
            0 -1 26 72946909 -163843 -1744846849 -58369 -1665549313
            -17665 -1084638209 -1078457124</internalNodes>
          <leafValues>
            -4.2462775111198425e-01 6.2830030918121338e-01</leafValues></_>
        <_>
          <internalNodes>
            0 -1 70 -1280290352 -134990352 -1073848322 2112894800
            -1145381125 -1029 -1120337921 -14654848</internalNodes>
          <leafValues>
            -5.0994271039962769e-01 5.0577563047409058e-01</leafValues></_>
        <_>
          <internalNodes>
            0 -1 90 -214436093 -138488529 -19923585 -67585 -336079489
            -204478609 -310378681 -134219977</internalNodes>
          <leafValues>
            -4.0733006596565247e-01 6.0075420141220093e-01</leafValues></_>
        <_>
          <internalNodes>
            0 -1 46 1026596348 1066409469 -581181441 -166595 -1145257985
            -1078673667 -1701250053 -14098947</internalNodes>
          <leafValues>
            -4.8052749037742615e-01 4.5703467726707458e-01</leafValues></_>
        <_>
          <internalNodes>
            0 -1 44 -221257078 1353699263 252316418 1936195535
            -271067213 5202847 -577777974 -101257490</internalNodes>
          <leafValues>
            -4.4032633304595947e-01 4.6410122513771057e-01</leafValues></_>
        <_>
          <internalNodes>
            0 -1 104 -1783625616 488379548 -1644688196 -570681416
            -1644308035 -2531907 -1146573843 -4608580</internalNodes>
          <leafValues>
            -5.8008080720901489e-01 3.3043897151947021e-01</leafValues></_>
        <_>
          <internalNodes>
            0 -1 110 -206837246 -521404926 1074135296 -894436690
            -139988223 1177543561 -67635968 -203425817</internalNodes>
          <leafValues>
            -3.9842939376831055e-01 4.8376703262329102e-01</leafValues></_></weakClassifiers></_>
    <!-- stage 7 -->
    <_>
      <maxWeakCount>10</maxWeakCount>
      <stageThreshold>-1.0875767469406128e+00</stageThreshold>
      <weakClassifiers>
        <_>
          <internalNodes>
            0 -1 72 -6398 -894505170 -1330774016 539889450 -671099129
            33847163 286196003 321859375</internalNodes>
          <leafValues>
            -2.7629286050796509e-01 8.2683157920837402e-01</leafValues></_>
        <_>
          <internalNodes>
            0 -1 17 -487595486 -1579346 -134224954 -135272498 -71303169
            -4161 -67109889 -12529</internalNodes>
          <leafValues>
            -3.0249759554862976e-01 7.2786259651184082e-01</leafValues></_>
        <_>
          <internalNodes>
            0 -1 65 -1313516033 -168338433 -4235265 -32769 -1248395269
            -1 -1246691329 1957747706</internalNodes>
          <leafValues>
            -4.5974209904670715e-01 5.5932003259658813e-01</leafValues></_>
        <_>
          <internalNodes>
            0 -1 40 993007800 -4956675 1608450045 1600020349 -21963526
            -4919363 512408569 -16065099</internalNodes>
          <leafValues>
            -5.4405504465103149e-01 4.2091369628906250e-01</leafValues></_>
        <_>
          <internalNodes>
            0 -1 91 -1 -1078001665 -1157910084 -336961 1574273021
            479221108 -8520723 -32787</internalNodes>
          <leafValues>
            -4.3869993090629578e-01 5.1018470525741577e-01</leafValues></_>
        <_>
          <internalNodes>
            0 -1 106 277909757 -604463144 2098264031 -39273123
            -2002192134 -84366087 -1373061700 -5502848</internalNodes>
          <leafValues>
            -3.8903439044952393e-01 4.9718353152275085e-01</leafValues></_>
        <_>
          <internalNodes>
            0 -1 114 -286268157 -2132825457 -1064341758 -321917973
            -137901824 88594527 -205540047 -134219817</internalNodes>
          <leafValues>
            -3.7098506093025208e-01 5.3885877132415771e-01</leafValues></_>
        <_>
          <internalNodes>
            0 -1 29 -1080694 2142759835 185076490 -738607190 -136320119
            2043410239 -553263378 -1052758</internalNodes>
          <leafValues>
            -3.9003169536590576e-01 4.6228784322738647e-01</leafValues></_>
        <_>
          <internalNodes>
            0 -1 43 858788213 -8560749 -1715872257 -82641991 -337625231
            -4482196 -548033027 -91170652</internalNodes>
          <leafValues>
            -3.7045148015022278e-01 4.7251960635185242e-01</leafValues></_>
        <_>
          <internalNodes>
            0 -1 51 -206572630 1901424899 1075314720 1401115374
            1342247552 285282644 1103622862 1900541671</internalNodes>
          <leafValues>
            -5.0763946771621704e-01 3.4591045975685120e-01</leafValues></_></weakClassifiers></_>
    <!-- stage 8 -->
    <_>
      <maxWeakCount>10</maxWeakCount>
      <stageThreshold>-7.6628875732421875e-01</stageThreshold>
      <weakClassifiers>
        <_>
          <internalNodes>
            0 -1 32 184221947 838533232 -1970684417 400527807 10617086
            1004478715 2133999 180063455</internalNodes>
          <leafValues>
            -5.0536956638097763e-02 8.3978831768035889e-01</leafValues></_>
        <_>
          <internalNodes>
            0 -1 11 -285217041 15790047 -286332177 16707583 -132097
            2146760703 -1 -65537</internalNodes>
          <leafValues>
            -3.2530587911605835e-01 6.8954211473464966e-01</leafValues></_>
        <_>
          <internalNodes>
            0 -1 95 469763224 1568414968 2121981437 -537014792
            -1649927944 -123205396 -1346371585 -1062499</internalNodes>
          <leafValues>
            -5.7370620965957642e-01 4.7233259677886963e-01</leafValues></_>
        <_>
          <internalNodes>
            0 -1 59 -1058037214 -4161 -8392721 -8209 -85988626 -33554433
            -872419633 -605034322</internalNodes>
          <leafValues>
            -5.2634310722351074e-01 4.6398732066154480e-01</leafValues></_>
        <_>
          <internalNodes>
            0 -1 25 9441781 -1111542281 1040143871 -2655235 -1330135297
            -324613 -1079198209 -1097331060</internalNodes>
          <leafValues>
            -4.7128191590309143e-01 4.6335986256599426e-01</leafValues></_>
        <_>
          <internalNodes>
            0 -1 109 -353377534 -286394450 -1598642688 -271650906
            -339223800 131063055 -269041908 -402653297</internalNodes>
          <leafValues>
            -4.8108643293380737e-01 4.3084773421287537e-01</leafValues></_>
        <_>
          <internalNodes>
            0 -1 86 -4259841 489750525 -2097409 -73729 286285304
            1571879917 -1615167489 2143084025</internalNodes>
          <leafValues>
            -4.9315765500068665e-01 3.7489497661590576e-01</leafValues></_>
        <_>
          <internalNodes>
            0 -1 5 -276148998 -273784866 -269554179 -54273 1247563261
            -272687617 -554001923 -4521985</internalNodes>
          <leafValues>
            -4.0240076184272766e-01 4.4706258177757263e-01</leafValues></_>
        <_>
          <internalNodes>
            0 -1 42 -251706116 -844824576 1920457981 1880294404
            -20574530 -806989000 -873546771 -851443704</internalNodes>
          <leafValues>
            -4.3721458315849304e-01 3.7697967886924744e-01</leafValues></_>
        <_>
          <internalNodes>
            0 -1 19 1408492527 863598015 -1079334001 285014782
            1895416569 1404068849 -201457713 1643509743</internalNodes>
          <leafValues>
            -3.6376303434371948e-01 4.1915300488471985e-01</leafValues></_></weakClassifiers></_>
    <!-- stage 9 -->
    <_>
      <maxWeakCount>10</maxWeakCount>
      <stageThreshold>-1.1441563367843628e+00</stageThreshold>
      <weakClassifiers>
        <_>
          <internalNodes>
            0 -1 66 2013265903 12582831 1895805990 16775095 1342162895
            6287175 -167772161 1358954495</internalNodes>
          <leafValues>
            -1.6755729913711548e-01 8.4024494886398315e-01</leafValues></_>
        <_>
          <internalNodes>
            0 -1 28 -1560236288 -65548 -1026 -96 -1079329878 -26
            -72613974 -1081216</internalNodes>
          <leafValues>
            -4.6255910396575928e-01 6.1567497253417969e-01</leafValues></_>
        <_>
          <internalNodes>
            0 -1 55 -1862511105 -167804929 -32833 -4227077 -1124139009
            -33554433 -1078005761 -1111859777</internalNodes>
          <leafValues>
            -3.6967700719833374e-01 6.4631110429763794e-01</leafValues></_>
        <_>
          <internalNodes>
            0 -1 52 2136284671 1073683933 -16385 -4227587 2138898431
            2144648125 -4390913 -4662984</internalNodes>
          <leafValues>
            -3.8842579722404480e-01 5.6818902492523193e-01</leafValues></_>
        <_>
          <internalNodes>
            0 -1 16 -487592274 13430510 -990976474 -319815698 -3670529
            1124006399 -524449 -33</internalNodes>
          <leafValues>
            -5.5362051725387573e-01 3.8096651434898376e-01</leafValues></_>
        <_>
          <internalNodes>
            0 -1 98 -67937793 -170700335 -38019073 -573963 -134807553
            -25425 -458769 -189776272</internalNodes>
          <leafValues>
            -3.7910258769989014e-01 5.4332071542739868e-01</leafValues></_>
        <_>
          <internalNodes>
            0 -1 85 -33751041 1068564477 -33554433 -1076306945
            1036000764 536116733 -1073815556 -66051</internalNodes>
          <leafValues>
            -3.8551968336105347e-01 4.6591493487358093e-01</leafValues></_>
        <_>
          <internalNodes>
            0 -1 112 -1943015934 -2007171349 -2014539904 -1913733154
            -144705787 770441207 -135291676 -269484113</internalNodes>
          <leafValues>
            -4.4059738516807556e-01 3.9207515120506287e-01</leafValues></_>
        <_>
          <internalNodes>
            0 -1 8 19005602 993067188 1000177598 -4258430 147622127
            -1377005620 -1953847126 -227106</internalNodes>
          <leafValues>
            -5.2445644140243530e-01 3.2513248920440674e-01</leafValues></_>
        <_>
          <internalNodes>
            0 -1 18 -243837443 -586083088 2144542205 934747435
            -192744196 -651021072 -839221249 2130843135</internalNodes>
          <leafValues>
            -3.9134940505027771e-01 4.1676014661788940e-01</leafValues></_></weakClassifiers></_>
    <!-- stage 10 -->
    <_>
      <maxWeakCount>11</maxWeakCount>
      <stageThreshold>-6.6935813426971436e-01</stageThreshold>
      <weakClassifiers>
        <_>
          <internalNodes>
            0 -1 80 -74452480 -749210684 1393000448 -11608242 -217623806
            1531433451 -138939634 -134217729</internalNodes>
          <leafValues>
            -1.3050627708435059e-01 8.3640843629837036e-01</leafValues></_>
        <_>
          <internalNodes>
            0 -1 49 -1275334145 -526849 -271361 -1 -1326385154
            2143289311 -1327431682 2012741631</internalNodes>
          <leafValues>
            -3.4889820218086243e-01 6.8476158380508423e-01</leafValues></_>
        <_>
          <internalNodes>
            0 -1 81 -552542724 -144387 -67462658 -1027 756030648
            -6760003 -1078268161 -4530211</internalNodes>
          <leafValues>
            -5.0233459472656250e-01 4.9254715442657471e-01</leafValues></_>
        <_>
          <internalNodes>
            0 -1 35 -33694209 2144722879 2138927999 2147482495
            2142265325 958407358 2113699839 2141913087</internalNodes>
          <leafValues>
            -4.2522224783897400e-01 5.1237142086029053e-01</leafValues></_>
        <_>
          <internalNodes>
            0 -1 73 -2133900241 -8430241 -101187585 -67152385
            -1913193989 -44085 -76840977 -1462877493</internalNodes>
          <leafValues>
            -4.1825461387634277e-01 4.4918677210807800e-01</leafValues></_>
        <_>
          <internalNodes>
            0 -1 100 -4235777 -33598411 -543197699 2099008884 -362241
            -4457025 -69210684 -1475291072</internalNodes>
          <leafValues>
            -3.7211087346076965e-01 5.0579059123992920e-01</leafValues></_>
        <_>
          <internalNodes>
            0 -1 20 1498633435 1561558224 286937343 1561533429
            -1744118566 -583364368 -1643987542 487775711</internalNodes>
          <leafValues>
            -4.3809273838996887e-01 3.9905402064323425e-01</leafValues></_>
        <_>
          <internalNodes>
            0 -1 113 -1278 729870222 -672139776 -1111556260 -67109957
            764346303 -4464224 -4194305</internalNodes>
          <leafValues>
            -3.6962917447090149e-01 4.6608015894889832e-01</leafValues></_>
        <_>
          <internalNodes>
            0 -1 4 -722187009 1090280701 -16979218 -50562049 1446302711
            -168364801 -4133 -5046273</internalNodes>
          <leafValues>
            -3.8334262371063232e-01 4.4736698269844055e-01</leafValues></_>
        <_>
          <internalNodes>
            0 -1 77 -17409 -1145110593 2138848572 -508420 737438717
            417923061 2147227133 -1</internalNodes>
          <leafValues>
            -3.0884563922882080e-01 5.3161132335662842e-01</leafValues></_>
        <_>
          <internalNodes>
            0 -1 22 623051061 -1611593871 -1109166601 -194059 -339561986
            -2099463 -54617153 -1439494932</internalNodes>
          <leafValues>
            -3.8863059878349304e-01 4.1151443123817444e-01</leafValues></_></weakClassifiers></_>
    <!-- stage 11 -->
    <_>
      <maxWeakCount>7</maxWeakCount>
      <stageThreshold>-9.8122251033782959e-01</stageThreshold>
      <weakClassifiers>
        <_>
          <internalNodes>
            0 -1 7 724216482 704839586 7414000 551025663 793771855
            252704599 1618473207 1207959551</internalNodes>
          <leafValues>
            -3.6410111188888550e-01 8.4014922380447388e-01</leafValues></_>
        <_>
          <internalNodes>
            0 -1 57 -67109889 8385311 313784319 289406975 2147449855
            133914623 1405091839 1610612735</internalNodes>
          <leafValues>
            -4.1768667101860046e-01 6.9800448417663574e-01</leafValues></_>
        <_>
          <internalNodes>
            0 -1 82 1438580799 1966545837 355553723 2134056191 357500063
            454100376 1568609791 1602215421</internalNodes>
          <leafValues>
            -4.4784545898437500e-01 5.5785524845123291e-01</leafValues></_>
        <_>
          <internalNodes>
            0 -1 9 53149679 587265008 1409282803 -201985539 124771167
            189266303 1205851647 1476394495</internalNodes>
          <leafValues>
            -5.1255911588668823e-01 4.6122494339942932e-01</leafValues></_>
        <_>
          <internalNodes>
            0 -1 83 -9445377 715185433 -848463361 1528624031 2033531005
            406083925 1052596477 -33596043</internalNodes>
          <leafValues>
            -5.2038908004760742e-01 4.1791799664497375e-01</leafValues></_>
        <_>
          <internalNodes>
            0 -1 24 -1148060687 -1289682960 1417009149 -260571147
            -1386217521 -821560499 1171248373 -536881675</internalNodes>
          <leafValues>
            -3.6463621258735657e-01 5.6656312942504883e-01</leafValues></_>
        <_>
          <internalNodes>
            0 -1 37 -1868349328 -44559 -191561729 -33588751 -1261128539
            -5638 -1260323596 -990586636</internalNodes>
          <leafValues>
            -5.3203922510147095e-01 3.6991670727729797e-01</leafValues></_></weakClassifiers></_>
    <!-- stage 12 -->
    <_>
      <maxWeakCount>10</maxWeakCount>
      <stageThreshold>-6.8881833553314209e-01</stageThreshold>
      <weakClassifiers>
        <_>
          <internalNodes>
            0 -1 41 80 -33603339 -656867841 -33799683 -1124299523
            -16785411 -1192445700 -1460141832</internalNodes>
          <leafValues>
            -1.8475897610187531e-01 8.3224093914031982e-01</leafValues></_>
        <_>
          <internalNodes>
            0 -1 67 -1 1064353791 2147301883 1576394751 1610465279
            134233592 1576894463 1568538623</internalNodes>
          <leafValues>
            -4.1501384973526001e-01 6.1885124444961548e-01</leafValues></_>
        <_>
          <internalNodes>
            0 -1 15 -1978999134 -1115156 -2359297 -1051936 -1431633921
            -3 -1964253185 -269530688</internalNodes>
          <leafValues>
            -4.9470412731170654e-01 4.7756889462471008e-01</leafValues></_>
        <_>
          <internalNodes>
            0 -1 36 993200827 -1074703119 -1615085569 -2131587
            2147286015 -2097924 -4653057 -89466403</internalNodes>
          <leafValues>
            -3.7730002403259277e-01 5.8595365285873413e-01</leafValues></_>
        <_>
          <internalNodes>
            0 -1 78 -353390849 -6309889 -2049 -67109009 -285212673 -37
            -1 -335549633</internalNodes>
          <leafValues>
            -3.3323645591735840e-01 6.1747628450393677e-01</leafValues></_>
        <_>
          <internalNodes>
            0 -1 108 1068809213 959774717 -18435 1006451581 468041725
            185924189 -16387 2147474909</internalNodes>
          <leafValues>
            -4.7426798939704895e-01 4.2083615064620972e-01</leafValues></_>
        <_>
          <internalNodes>
            0 -1 87 -1608362735 -86876174 -134743561 -187630380
            -1196758081 -1401929 -88834049 -1129121833</internalNodes>
          <leafValues>
            -4.2972868680953979e-01 4.0357479453086853e-01</leafValues></_>
        <_>
          <internalNodes>
            0 -1 50 -357839357 -755771663 113181219 -135004265
            1132420875 1908368287 1465868511 -134218761</internalNodes>
          <leafValues>
            -4.4651719927787781e-01 3.6475163698196411e-01</leafValues></_>
        <_>
          <internalNodes>
            0 -1 99 -1635643407 -69216772 521813949 -545554851
            -1628914434 -269030403 -1106600980 -1148695552</internalNodes>
          <leafValues>
            -4.0354752540588379e-01 4.1117158532142639e-01</leafValues></_>
        <_>
          <internalNodes>
            0 -1 107 -805284432 -175053632 -536871427 2012575444
            -1212613708 -34021456 -271254544 -392135244</internalNodes>
          <leafValues>
            -4.2995789647102356e-01 3.4916445612907410e-01</leafValues></_></weakClassifiers></_></stages>
  <features>
    <_>
      <rect>
        0 0 7 1</rect></_>
    <_>
      <rect>
        0 0 10 2</rect></_>
    <_>
      <rect>
        0 4 4 5</rect></_>
    <_>
      <rect>
        0 8 1 2</rect></_>
    <_>
      <rect>
        0 12 4 3</rect></_>
    <_>
      <rect>
        0 16 9 2</rect></_>
    <_>
      <rect>
        0 16 11 2</rect></_>
    <_>
      <rect>
        0 17 23 1</rect></_>
    <_>
      <rect>
        1 0 25 7</rect></_>
    <_>
      <rect>
        1 0 26 1</rect></_>
    <_>
      <rect>
        2 5 5 5</rect></_>
    <_>
      <rect>
        2 6 3 5</rect></_>
    <_>
      <rect>
        3 2 4 5</rect></_>
    <_>
      <rect>
        3 3 4 6</rect></_>
    <_>
      <rect>
        3 5 4 3</rect></_>
    <_>
      <rect>
        4 0 4 2</rect></_>
    <_>
      <rect>
        4 6 3 3</rect></_>
    <_>
      <rect>
        5 0 3 4</rect></_>
    <_>
      <rect>
        6 12 15 3</rect></_>
    <_>
      <rect>
        7 2 5 6</rect></_>
    <_>
      <rect>
        7 12 18 3</rect></_>
    <_>
      <rect>
        8 0 11 2</rect></_>
    <_>
      <rect>
        9 0 2 1</rect></_>
    <_>
      <rect>
        9 16 11 2</rect></_>
    <_>
      <rect>
        10 19 23 1</rect></_>
    <_>
      <rect>
        12 0 2 1</rect></_>
    <_>
      <rect>
        12 0 3 1</rect></_>
    <_>
      <rect>
        12 16 11 2</rect></_>
    <_>
      <rect>
        13 1 4 2</rect></_>
    <_>
      <rect>
        13 3 4 6</rect></_>
    <_>
      <rect>
        14 1 3 6</rect></_>
    <_>
      <rect>
        15 0 13 2</rect></_>
    <_>
      <rect>
        15 3 15 2</rect></_>
    <_>
      <rect>
        17 3 13 2</rect></_>
    <_>
      <rect>
        17 4 4 1</rect></_>
    <_>
      <rect>
        17 12 4 3</rect></_>
    <_>
      <rect>
        19 17 6 1</rect></_>
    <_>
      <rect>
        20 2 3 1</rect></_>
    <_>
      <rect>
        20 16 10 2</rect></_>
    <_>
      <rect>
        21 0 6 1</rect></_>
    <_>
      <rect>
        21 16 12 2</rect></_>
    <_>
      <rect>
        22 0 2 2</rect></_>
    <_>
      <rect>
        22 1 19 2</rect></_>
    <_>
      <rect>
        23 1 7 1</rect></_>
    <_>
      <rect>
        23 3 3 5</rect></_>
    <_>
      <rect>
        23 7 3 4</rect></_>
    <_>
      <rect>
        24 16 9 2</rect></_>
    <_>
      <rect>
        25 0 4 1</rect></_>
    <_>
      <rect>
        26 3 4 2</rect></_>
    <_>
      <rect>
        26 4 4 1</rect></_>
    <_>
      <rect>
        26 6 3 1</rect></_>
    <_>
      <rect>
        26 7 4 4</rect></_>
    <_>
      <rect>
        26 17 4 1</rect></_>
    <_>
      <rect>
        27 0 6 1</rect></_>
    <_>
      <rect>
        28 13 16 3</rect></_>
    <_>
      <rect>
        30 0 7 2</rect></_>
    <_>
      <rect>
        30 2 15 5</rect></_>
    <_>
      <rect>
        30 6 7 1</rect></_>
    <_>
      <rect>
        30 15 7 2</rect></_>
    <_>
      <rect>
        32 0 3 4</rect></_>
    <_>
      <rect>
        32 10 3 4</rect></_>
    <_>
      <rect>
        32 14 6 2</rect></_>
    <_>
      <rect>
        32 16 12 2</rect></_>
    <_>
      <rect>
        34 0 5 4</rect></_>
    <_>
      <rect>
        34 1 2 5</rect></_>
    <_>
      <rect>
        35 3 4 1</rect></_>
    <_>
      <rect>
        35 9 5 2</rect></_>
    <_>
      <rect>
        35 10 4 4</rect></_>
    <_>
      <rect>
        36 19 5 1</rect></_>
    <_>
      <rect>
        38 16 11 2</rect></_>
    <_>
      <rect>
        39 0 11 2</rect></_>
    <_>
      <rect>
        39 5 6 4</rect></_>
    <_>
      <rect>
        39 8 2 2</rect></_>
    <_>
      <rect>
        40 0 3 3</rect></_>
    <_>
      <rect>
        40 0 5 5</rect></_>
    <_>
      <rect>
        40 1 5 7</rect></_>
    <_>
      <rect>
        40 7 5 5</rect></_>
    <_>
      <rect>
        40 10 2 4</rect></_>
    <_>
      <rect>
        41 0 3 4</rect></_>
    <_>
      <rect>
        42 6 4 4</rect></_>
    <_>
      <rect>
        42 9 4 3</rect></_>
    <_>
      <rect>
        44 16 7 2</rect></_>
    <_>
      <rect>
        45 9 11 4</rect></_>
    <_>
      <rect>
        45 10 4 4</rect></_>
    <_>
      <rect>
        45 14 5 2</rect></_>
    <_>
      <rect>
        45 15 4 2</rect></_>
    <_>
      <rect>
        45 15 5 2</rect></_>
    <_>
      <rect>
        46 0 4 2</rect></_>
    <_>
      <rect>
        46 6 4 4</rect></_>
    <_>
      <rect>
        46 10 4 4</rect></_>
    <_>
      <rect>
        47 1 2 5</rect></_>
    <_>
      <rect>
        47 10 3 4</rect></_>
    <_>
      <rect>
        47 13 3 3</rect></_>
    <_>
      <rect>
        47 16 9 2</rect></_>
    <_>
      <rect>
        49 6 2 3</rect></_>
    <_>
      <rect>
        49 16 10 2</rect></_>
    <_>
      <rect>
        51 19 6 1</rect></_>
    <_>
      <rect>
        54 19 5 1</rect></_>
    <_>
      <rect>
        56 2 4 1</rect></_>
    <_>
      <rect>
        57 19 5 1</rect></_>
    <_>
      <rect>
        58 2 6 1</rect></_>
    <_>
      <rect>
        58 3 2 4</rect></_>
    <_>
      <rect>
        58 8 2 3</rect></_>
    <_>
      <rect>
        59 10 1 1</rect></_>
    <_>
      <rect>
        60 16 5 2</rect></_>
    <_>
      <rect>
        61 0 5 1</rect></_>
    <_>
      <rect>
        61 19 5 1</rect></_>
    <_>
      <rect>
        63 1 4 1</rect></_>
    <_>
      <rect>
        64 15 5 2</rect></_>
    <_>
      <rect>
        65 7 2 3</rect></_>
    <_>
      <rect>
        67 9 1 2</rect></_>
    <_>
      <rect>
        74 3 2 5</rect></_>
    <_>
      <rect>
        74 5 2 5</rect></_>
    <_>
      <rect>
        74 13 2 3</rect></_>
    <_>
      <rect>
        77 7 1 3</rect></_></features></cascade>
</opencv_storage>
